{"learner":{"attributes":{"scikit_learn":"{\"_estimator_type\": \"classifier\"}"},"feature_names":["RC_M1_UE_CUS_CN","M1_SME_RY_SAA_RAT","MCT_UE_CLN_NEW_RAT","RC_M1_AV_NP_AT_CHG3M","AGEGEN_Hn"],"feature_types":["int","float","float","float","float"],"gradient_booster":{"model":{"gbtree_model_param":{"num_parallel_tree":"1","num_trees":"100"},"iteration_indptr":[0,1,2,3,4,5,6,7,8,9,10,11,12,13,14,15,16,17,18,19,20,21,22,23,24,25,26,27,28,29,30,31,32,33,34,35,36,37,38,39,40,41,42,43,44,45,46,47,48,49,50,51,52,53,54,55,56,57,58,59,60,61,62,63,64,65,66,67,68,69,70,71,72,73,74,75,76,77,78,79,80,81,82,83,84,85,86,87,88,89,90,91,92,93,94,95,96,97,98,99,100],"tree_info":[0,0,0,0,0,0,0,0,0,0,0,0,0,0,0,0,0,0,0,0,0,0,0,0,0,0,0,0,0,0,0,0,0,0,0,0,0,0,0,0,0,0,0,0,0,0,0,0,0,0,0,0,0,0,0,0,0,0,0,0,0,0,0,0,0,0,0,0,0,0,0,0,0,0,0,0,0,0,0,0,0,0,0,0,0,0,0,0,0,0,0,0,0,0,0,0,0,0,0,0],"trees":[{"base_weights":[-2.0063626E-2,-3.514104E-1,9.0185475E-1,-7.897439E-1,-1.720582E-1,6.816709E-1,1.4626318E0,-8.2079107E-1,1.0863872E0,-2.2968802E-1,8.69552E-1,5.1713705E-1,1.3656656E0,2.157386E0,1.2937328E0,-5.012206E-1,-9.1897875E-1,5.276607E-1,1.5037224E0,-3.6308253E-1,2.0767021E-1,1.073887E0,6.3929254E-1,9.915154E-1,2.673794E-1,9.767357E-1,1.4866793E0,2.3447573E0,1.6347134E0,1.2135651E0,1.8439652E0,-3.7001148E-2,-5.9580404E-1,-1.1843389E0,-8.0485153E-1,1.5045367E0,-1.1679771E-1,1.8107115E0,6.3435036E-1,-5.014248E-1,-2.1965382E-1,-3.99057E-2,4.1052228E-1,9.3446934E-1,1.361652E0,5.455044E-1,9.5141584E-1,1.5717738E0,7.847965E-1,-3.020461E-1,4.7188655E-1,1.3385459E0,5.07887E-1,1.2463517E0,1.6026881E0,7.432657E-1,2.366429E0,1.0136104E0,1.7411317E0,1.4276258E0,1.0288864E0,1.8818115E0,7.12489E-1,-2.042557E-1,9.6362896E-2,-2.0636316E-1,-8.306741E-2,-3.7044787E-1,-1.978186E-1,-2.484725E-1,1.1107119E-1,1.8205786E-1,5.142974E-1,2.3291196E-1,-1.9796185E-1,2.591938E-1,5.7212967E-1,3.1338967E-2,5.0123125E-1,2.2791415E-2,-1.5979299E-1,2.6725674E-2,-1.0167748E-1,-3.849857E-2,4.3262792E-1,1.10269874E-1,4.048303E-1,1.5696207E-1,3.0077192E-1,4.286125E-1,1.6845647E-1,-7.69527E-3,1.9345061E-1,9.118147E-2,4.0334883E-1,5.411033E-1,3.928208E-1,2.4300736E-1,-1.3011943E-2,3.2190362E-1,-1.24121256E-1,1.8821792E-1,9.540076E-2,2.617296E-1,4.4535333E-1,2.0811073E-1,4.8032794E-2,4.3973973E-1,2.943145E-1,4.8310217E-1,-1.4098891E-2,2.9311126E-1,3.3721235E-2,7.597243E-1,6.1447334E-1,4.006959E-1,4.897652E-2,5.534217E-1,2.4969424E-1,5.8421105E-1,4.1320747E-1,4.0673676E-1,2.531325E-1,4.3845156E-1,5.975478E-1,-1.4098891E-2,2.914683E-1],"categories":[],"categories_nodes":[],"categories_segments":[],"categories_sizes":[],"default_left":[0,0,1,0,1,1,0,0,0,0,0,1,0,0,1,0,0,0,0,0,0,0,0,0,0,0,0,0,0,0,0,0,0,0,1,0,0,0,0,0,1,0,0,0,0,0,0,0,0,0,0,0,0,0,0,0,0,0,0,0,1,0,0,0,0,0,0,0,0,0,0,0,0,0,0,0,0,0,0,0,0,0,0,0,0,0,0,0,0,0,0,0,0,0,0,0,0,0,0,0,0,0,0,0,0,0,0,0,0,0,0,0,0,0,0,0,0,0,0,0,0,0,0,0,0,0,0],"id":0,"left_children":[1,3,5,7,9,11,13,15,17,19,21,23,25,27,29,31,33,35,37,39,41,43,45,47,49,51,53,55,57,59,61,63,65,67,69,71,73,75,77,79,81,83,85,87,89,91,93,95,97,99,101,103,105,107,109,111,113,115,117,119,121,123,125,-1,-1,-1,-1,-1,-1,-1,-1,-1,-1,-1,-1,-1,-1,-1,-1,-1,-1,-1,-1,-1,-1,-1,-1,-1,-1,-1,-1,-1,-1,-1,-1,-1,-1,-1,-1,-1,-1,-1,-1,-1,-1,-1,-1,-1,-1,-1,-1,-1,-1,-1,-1,-1,-1,-1,-1,-1,-1,-1,-1,-1,-1,-1,-1],"loss_changes":[4.9592456E3,9.387217E2,5.289795E2,2.0285742E2,5.0899548E2,3.4636096E2,1.3910864E2,1.0658301E2,1.246846E1,4.6869632E2,2.0230988E1,2.9445966E2,2.6664185E1,1.9180542E1,4.0782593E1,3.5279816E1,7.804297E1,1.6455242E1,7.396164E0,1.2202826E2,9.4329315E1,8.118744E0,5.6723633E0,1.01635864E2,1.9007004E2,2.3862656E1,1.0651733E1,4.164856E0,2.552185E0,3.229883E1,3.8878784E0,3.1850853E1,1.941986E1,1.9920166E1,5.0525024E1,9.088745E-1,8.519753E0,4.6224976E-1,5.259334E0,5.6505432E1,1.1138345E2,1.1113261E2,4.1138474E1,3.9812164E0,3.1792755E0,9.376217E0,1.1686863E1,1.1284058E1,1.32881775E1,6.672699E1,2.8525452E1,4.219208E0,4.0654316E0,7.4233704E0,3.8944702E0,4.4126272E-1,3.6826782E0,3.0536308E0,3.5837402E0,7.5863647E0,2.6821747E1,2.5239563E0,1.1398954E0,0E0,0E0,0E0,0E0,0E0,0E0,0E0,0E0,0E0,0E0,0E0,0E0,0E0,0E0,0E0,0E0,0E0,0E0,0E0,0E0,0E0,0E0,0E0,0E0,0E0,0E0,0E0,0E0,0E0,0E0,0E0,0E0,0E0,0E0,0E0,0E0,0E0,0E0,0E0,0E0,0E0,0E0,0E0,0E0,0E0,0E0,0E0,0E0,0E0,0E0,0E0,0E0,0E0,0E0,0E0,0E0,0E0,0E0,0E0,0E0,0E0,0E0,0E0,0E0],"parents":[2147483647,0,0,1,1,2,2,3,3,4,4,5,5,6,6,7,7,8,8,9,9,10,10,11,11,12,12,13,13,14,14,15,15,16,16,17,17,18,18,19,19,20,20,21,21,22,22,23,23,24,24,25,25,26,26,27,27,28,28,29,29,30,30,31,31,32,32,33,33,34,34,35,35,36,36,37,37,38,38,39,39,40,40,41,41,42,42,43,43,44,44,45,45,46,46,47,47,48,48,49,49,50,50,51,51,52,52,53,53,54,54,55,55,56,56,57,57,58,58,59,59,60,60,61,61,62,62],"right_children":[2,4,6,8,10,12,14,16,18,20,22,24,26,28,30,32,34,36,38,40,42,44,46,48,50,52,54,56,58,60,62,64,66,68,70,72,74,76,78,80,82,84,86,88,90,92,94,96,98,100,102,104,106,108,110,112,114,116,118,120,122,124,126,-1,-1,-1,-1,-1,-1,-1,-1,-1,-1,-1,-1,-1,-1,-1,-1,-1,-1,-1,-1,-1,-1,-1,-1,-1,-1,-1,-1,-1,-1,-1,-1,-1,-1,-1,-1,-1,-1,-1,-1,-1,-1,-1,-1,-1,-1,-1,-1,-1,-1,-1,-1,-1,-1,-1,-1,-1,-1,-1,-1,-1,-1,-1,-1],"split_conditions":[5E0,3E0,7.14E0,6.5E1,5E1,5E1,-3.3333332E1,8.166583E-1,1E2,9.38E0,8.945438E-1,0E0,2.17322E-1,7.24403E-1,5E1,6.1E0,2E0,2E0,9.35001E-1,4E0,4E0,9.52E0,9.57E0,-4E1,2.17322E-1,3E2,1E2,7.33E0,8.26E0,7.544337E-1,9.459462E-1,2E0,1.159E1,1.525E1,5E1,7.9074943E-1,1.457E2,8.26E1,2.693E2,4.02E0,0E0,1E2,2.693E2,3.24E1,2.043E2,4.46E1,4E0,-5E1,9.655778E-1,6E0,8.013489E-1,1.03E0,1.03E0,6E0,7.18E1,2.22E1,-5E1,7.82E0,2.908E1,9E-1,-1.6666666E1,8.72E0,8.51E0,-2.042557E-1,9.6362896E-2,-2.0636316E-1,-8.306741E-2,-3.7044787E-1,-1.978186E-1,-2.484725E-1,1.1107119E-1,1.8205786E-1,5.142974E-1,2.3291196E-1,-1.9796185E-1,2.591938E-1,5.7212967E-1,3.1338967E-2,5.0123125E-1,2.2791415E-2,-1.5979299E-1,2.6725674E-2,-1.0167748E-1,-3.849857E-2,4.3262792E-1,1.10269874E-1,4.048303E-1,1.5696207E-1,3.0077192E-1,4.286125E-1,1.6845647E-1,-7.69527E-3,1.9345061E-1,9.118147E-2,4.0334883E-1,5.411033E-1,3.928208E-1,2.4300736E-1,-1.3011943E-2,3.2190362E-1,-1.24121256E-1,1.8821792E-1,9.540076E-2,2.617296E-1,4.4535333E-1,2.0811073E-1,4.8032794E-2,4.3973973E-1,2.943145E-1,4.8310217E-1,-1.4098891E-2,2.9311126E-1,3.3721235E-2,7.597243E-1,6.1447334E-1,4.006959E-1,4.897652E-2,5.534217E-1,2.4969424E-1,5.8421105E-1,4.1320747E-1,4.0673676E-1,2.531325E-1,4.3845156E-1,5.975478E-1,-1.4098891E-2,2.914683E-1],"split_indices":[0,0,2,2,3,3,3,4,2,2,4,3,4,4,3,2,0,0,4,0,0,2,2,3,4,3,3,2,2,4,4,0,2,2,3,4,1,1,1,2,3,2,1,1,1,1,0,3,4,0,4,2,2,0,1,1,3,2,2,1,3,2,2,0,0,0,0,0,0,0,0,0,0,0,0,0,0,0,0,0,0,0,0,0,0,0,0,0,0,0,0,0,0,0,0,0,0,0,0,0,0,0,0,0,0,0,0,0,0,0,0,0,0,0,0,0,0,0,0,0,0,0,0,0,0,0,0],"split_type":[0,0,0,0,0,0,0,0,0,0,0,0,0,0,0,0,0,0,0,0,0,0,0,0,0,0,0,0,0,0,0,0,0,0,0,0,0,0,0,0,0,0,0,0,0,0,0,0,0,0,0,0,0,0,0,0,0,0,0,0,0,0,0,0,0,0,0,0,0,0,0,0,0,0,0,0,0,0,0,0,0,0,0,0,0,0,0,0,0,0,0,0,0,0,0,0,0,0,0,0,0,0,0,0,0,0,0,0,0,0,0,0,0,0,0,0,0,0,0,0,0,0,0,0,0,0,0],"sum_hessian":[1.6232518E4,1.194131E4,4.2912085E3,3.4663093E3,8.475E3,3.0829377E3,1.2082708E3,3.4104343E3,5.587511E1,8.03142E3,4.4357996E2,2.4865564E3,5.963813E2,2.3399127E2,9.742795E2,8.030052E2,2.6074292E3,2.4858723E1,3.1016388E1,6.154472E3,1.8769476E3,2.3307904E2,2.1050093E2,8.565997E2,1.6299568E3,1.4367886E2,4.5270242E2,1.6967789E2,6.431339E1,8.531787E2,1.2110075E2,1.3615282E2,6.6685236E2,7.813393E2,1.8260898E3,9.350529E0,1.5508194E1,2.2121983E1,8.894405E0,3.131515E3,3.0229575E3,8.456527E2,1.0312949E3,1.5987123E2,7.3207794E1,1.6397635E2,4.6524582E1,2.2327238E2,6.333273E2,4.3058044E2,1.1993763E3,8.004965E1,6.3629208E1,1.512049E2,3.0149753E2,2.73674E0,1.6694115E2,1.094696E1,5.3366432E1,3.9203802E2,4.6114072E2,1.1653952E2,4.5612335E0,4.8349075E1,8.780374E1,5.165597E2,1.5029265E2,7.115524E2,6.978687E1,1.7907402E3,3.534956E1,2.5086784E0,6.8418503E0,5.701542E0,9.806652E0,2.9648018E0,1.915718E1,6.6137886E0,2.2806168E0,1.6055542E2,2.9709595E3,8.4245984E2,2.1804978E3,7.989E2,4.6752644E1,9.875071E2,4.378784E1,2.3946476E1,1.3592476E2,6.682207E1,6.385727E0,2.44026E1,1.3957375E2,1.8244934E1,2.8279648E1,1.1539921E2,1.0787317E2,6.146262E2,1.8701057E1,3.1700573E1,3.9887988E2,5.9501294E2,6.0436346E2,2.0753613E1,5.9296036E1,4.082304E1,2.2806168E1,8.027771E1,7.0927185E1,3.0012915E2,1.36837E0,1.5964317E0,1.1403084E0,1.0513643E2,6.1804714E1,7.5260353E0,3.4209251E0,4.6980705E1,6.385727E0,3.124445E1,3.6079358E2,1.6443246E2,2.9670825E2,2.713934E1,8.940018E1,1.36837E0,3.1928635E0],"tree_param":{"num_deleted":"0","num_feature":"5","num_nodes":"127","size_leaf_vector":"1"}},{"base_weights":[-2.0866318E-2,-2.6072583E-1,5.882914E-1,-6.1425155E-1,-1.2532507E-1,4.695407E-1,1.0058197E0,-6.3993704E-1,7.4254E-1,-2.5352576E-1,1.3758695E-1,3.503082E-1,8.408961E-1,1.3661183E0,8.635588E-1,-3.7208736E-1,-7.2447634E-1,3.7884042E-1,9.9978834E-1,-2.9565135E-1,5.060155E-1,-7.756766E-2,3.1334138E-1,5.4082435E-1,-1.4766914E-4,7.994361E-1,1.0269642E0,1.5552096E0,1.195629E0,7.5873E-1,1.053034E0,-5.816564E-1,-2.2360487E-1,-9.7465754E-1,-6.219655E-1,1.0246801E0,-8.7473646E-2,1.1709576E0,4.7811094E-1,-1.3046229E-1,-3.692554E-1,6.476237E-1,3.412776E-1,-1.2141359E-1,9.182194E-1,7.3611015E-1,2.5167087E-1,9.622266E-1,4.212294E-1,-1.272411E-1,3.976201E-1,8.312556E-1,3.7394527E-1,1.1036031E0,7.4162734E-1,1.1366645E0,4.9017364E-1,4.5971656E-1,1.0186934E0,7.3552626E-1,4.881809E-1,1.230548E0,9.4663924E-1,-1.0503855E-1,-2.3254111E-1,9.5475435E-2,-1.0030443E-1,-3.068735E-1,-1.5283334E-1,-2.1431586E-1,-8.449725E-2,1.3899545E-1,3.8880956E-1,1.6355935E-1,-1.5493277E-1,4.537373E-1,2.91318E-1,1.0394251E-3,3.2884035E-1,2.1439779E-1,-4.6641793E-2,-1.1638305E-1,4.9296807E-2,1.3196479E-1,2.207143E-1,8.321542E-2,2.808237E-1,-5.0832927E-2,1.4763656E-1,7.280825E-2,3.3405063E-1,1.7316024E-1,3.2235178E-1,5.859392E-2,2.4287869E-1,3.5832646E-1,2.1863605E-1,2.27482E-1,1.01239726E-1,1.5969217E-2,-2.0497608E-1,1.2960322E-1,-7.033893E-2,3.0450827E-1,2.3104104E-1,2.448682E-1,3.724104E-3,3.481146E-1,1.9920887E-1,4.77871E-2,2.782437E-1,4.6254325E-1,1.7491966E-1,2.1210427E-3,3.1784385E-1,2.543745E-1,1.8580657E-1,3.7564754E-1,1.1170809E-1,3.6700448E-1,2.5786942E-1],"categories":[],"categories_nodes":[],"categories_segments":[],"categories_sizes":[],"default_left":[0,0,1,0,0,1,0,0,0,1,0,0,1,0,0,0,0,0,0,0,0,0,0,0,0,1,0,0,0,0,0,0,0,0,0,0,0,1,0,0,0,0,0,0,0,0,1,1,0,0,0,0,0,0,0,0,0,0,0,0,0,0,0,0,0,0,0,0,0,0,0,0,0,0,0,0,0,0,0,0,0,0,0,0,0,0,0,0,0,0,0,0,0,0,0,0,0,0,0,0,0,0,0,0,0,0,0,0,0,0,0,0,0,0,0,0,0,0,0,0,0],"id":1,"left_children":[1,3,5,7,9,11,13,15,17,19,21,23,25,27,29,31,33,35,37,39,41,43,45,47,49,51,53,55,57,59,61,63,65,67,69,71,73,75,77,79,81,83,85,87,89,91,93,95,97,99,101,103,105,107,109,111,-1,-1,113,115,-1,117,119,-1,-1,-1,-1,-1,-1,-1,-1,-1,-1,-1,-1,-1,-1,-1,-1,-1,-1,-1,-1,-1,-1,-1,-1,-1,-1,-1,-1,-1,-1,-1,-1,-1,-1,-1,-1,-1,-1,-1,-1,-1,-1,-1,-1,-1,-1,-1,-1,-1,-1,-1,-1,-1,-1,-1,-1,-1,-1],"loss_changes":[2.3415815E3,5.503195E2,2.240122E2,1.1143787E2,2.8030542E2,1.55867E2,5.0162964E1,7.050134E1,5.1993484E0,1.7900818E2,1.0311639E2,1.7836404E2,5.786072E0,7.2261963E0,1.3518921E1,2.3265503E1,6.0292236E1,8.013145E0,2.503891E0,6.435455E1,6.640045E0,5.3663845E1,3.8942154E1,8.681351E1,4.7662197E1,9.232819E0,2.517456E0,2.4349365E0,7.5274353E0,8.228149E0,3.6357727E0,1.366758E1,2.6610582E1,1.4932556E1,5.286212E1,1.0918722E0,4.6780834E0,2.4775314E-1,2.9784656E0,3.4653454E1,3.6596283E1,2.5502777E0,4.9873447E0,3.4728596E1,6.5691376E0,9.6252365E0,4.1070374E1,1.982431E1,3.785219E1,7.1733185E1,5.0639534E0,6.5756836E0,8.123134E0,2.1796417E0,3.6778297E0,4.4636154E0,0E0,0E0,4.2413406E0,5.445801E0,0E0,1.2384949E0,2.882141E0,0E0,0E0,0E0,0E0,0E0,0E0,0E0,0E0,0E0,0E0,0E0,0E0,0E0,0E0,0E0,0E0,0E0,0E0,0E0,0E0,0E0,0E0,0E0,0E0,0E0,0E0,0E0,0E0,0E0,0E0,0E0,0E0,0E0,0E0,0E0,0E0,0E0,0E0,0E0,0E0,0E0,0E0,0E0,0E0,0E0,0E0,0E0,0E0,0E0,0E0,0E0,0E0,0E0,0E0,0E0,0E0,0E0,0E0],"parents":[2147483647,0,0,1,1,2,2,3,3,4,4,5,5,6,6,7,7,8,8,9,9,10,10,11,11,12,12,13,13,14,14,15,15,16,16,17,17,18,18,19,19,20,20,21,21,22,22,23,23,24,24,25,25,26,26,27,27,28,28,29,29,30,30,31,31,32,32,33,33,34,34,35,35,36,36,37,37,38,38,39,39,40,40,41,41,42,42,43,43,44,44,45,45,46,46,47,47,48,48,49,49,50,50,51,51,52,52,53,53,54,54,55,55,58,58,59,59,61,61,62,62],"right_children":[2,4,6,8,10,12,14,16,18,20,22,24,26,28,30,32,34,36,38,40,42,44,46,48,50,52,54,56,58,60,62,64,66,68,70,72,74,76,78,80,82,84,86,88,90,92,94,96,98,100,102,104,106,108,110,112,-1,-1,114,116,-1,118,120,-1,-1,-1,-1,-1,-1,-1,-1,-1,-1,-1,-1,-1,-1,-1,-1,-1,-1,-1,-1,-1,-1,-1,-1,-1,-1,-1,-1,-1,-1,-1,-1,-1,-1,-1,-1,-1,-1,-1,-1,-1,-1,-1,-1,-1,-1,-1,-1,-1,-1,-1,-1,-1,-1,-1,-1,-1,-1],"split_conditions":[5E0,3E0,8.95E0,6.5E1,8.38E0,2E1,-2.5E1,8.1504935E-1,1E2,5E1,4E0,6E0,4.78E0,-6E1,5E1,2E0,2E0,2E0,9.35001E-1,8.664281E-1,9.027328E-1,1E2,-2E1,1.03E0,2E1,3.85E0,9.093277E-1,1.159E1,3.4E0,1.933E2,3E2,2.693E2,5.88E0,1.525E1,8.86E0,7.692E1,1.457E2,0E0,2.238E2,2.63E0,3.48E2,4E0,2.797E2,3.394E2,8.116085E-1,1.032E2,5E1,-2.5E1,-2.5E1,1.03E0,9.2371666E-1,6E0,7.959921E-1,8.26E0,9.2505133E-1,2.03E1,4.9017364E-1,4.5971656E-1,2.17322E-1,7.645538E-1,4.881809E-1,9.5295453E-1,4.7712126E-1,-1.0503855E-1,-2.3254111E-1,9.5475435E-2,-1.0030443E-1,-3.068735E-1,-1.5283334E-1,-2.1431586E-1,-8.449725E-2,1.3899545E-1,3.8880956E-1,1.6355935E-1,-1.5493277E-1,4.537373E-1,2.91318E-1,1.0394251E-3,3.2884035E-1,2.1439779E-1,-4.6641793E-2,-1.1638305E-1,4.9296807E-2,1.3196479E-1,2.207143E-1,8.321542E-2,2.808237E-1,-5.0832927E-2,1.4763656E-1,7.280825E-2,3.3405063E-1,1.7316024E-1,3.2235178E-1,5.859392E-2,2.4287869E-1,3.5832646E-1,2.1863605E-1,2.27482E-1,1.01239726E-1,1.5969217E-2,-2.0497608E-1,1.2960322E-1,-7.033893E-2,3.0450827E-1,2.3104104E-1,2.448682E-1,3.724104E-3,3.481146E-1,1.9920887E-1,4.77871E-2,2.782437E-1,4.6254325E-1,1.7491966E-1,2.1210427E-3,3.1784385E-1,2.543745E-1,1.8580657E-1,3.7564754E-1,1.1170809E-1,3.6700448E-1,2.5786942E-1],"split_indices":[0,0,2,2,2,3,3,4,2,3,0,0,2,3,3,0,0,0,4,4,4,2,3,2,3,2,4,2,1,1,3,1,2,2,2,2,1,3,1,2,1,0,1,1,4,1,3,3,3,2,4,0,4,2,4,1,0,0,4,4,0,4,4,0,0,0,0,0,0,0,0,0,0,0,0,0,0,0,0,0,0,0,0,0,0,0,0,0,0,0,0,0,0,0,0,0,0,0,0,0,0,0,0,0,0,0,0,0,0,0,0,0,0,0,0,0,0,0,0,0,0],"split_type":[0,0,0,0,0,0,0,0,0,0,0,0,0,0,0,0,0,0,0,0,0,0,0,0,0,0,0,0,0,0,0,0,0,0,0,0,0,0,0,0,0,0,0,0,0,0,0,0,0,0,0,0,0,0,0,0,0,0,0,0,0,0,0,0,0,0,0,0,0,0,0,0,0,0,0,0,0,0,0,0,0,0,0,0,0,0,0,0,0,0,0,0,0,0,0,0,0,0,0,0,0,0,0,0,0,0,0,0,0,0,0,0,0,0,0,0,0,0,0,0,0],"sum_hessian":[1.6023856E4,1.1497298E4,4.526558E3,3.1830225E3,8.314275E3,3.525876E3,1.0006822E3,3.1244026E3,5.861988E1,5.589009E3,2.7252666E3,2.6704182E3,8.554578E2,2.8083057E2,7.198517E2,7.508501E2,2.3735525E3,2.530962E1,3.331026E1,5.295899E3,2.931097E2,1.2255431E3,1.4997235E3,1.7296152E3,9.4080304E2,7.0390826E2,1.5154955E2,1.293003E2,1.5153026E2,4.6666772E2,2.5318393E2,3.1016464E2,4.4068542E2,6.8740594E2,1.6861465E3,1.0109992E1,1.5199628E1,2.414377E1,9.166491E0,1.6332286E3,3.6626704E3,1.5604372E2,1.37066E2,1.1746976E3,5.084555E1,1.8952692E2,1.3101967E3,3.807979E2,1.3488173E3,7.135061E2,2.2729698E2,6.540433E2,4.986504E1,1.1720235E2,3.4347195E1,2.2909351E1,1.0639095E2,4.9554012E1,1.0197625E2,4.5632355E2,1.0344179E1,9.0920975E1,1.6226295E2,1.4247824E2,1.6768642E2,7.446437E1,3.6622107E2,6.217194E2,6.5686485E1,1.3251609E3,3.609856E2,4.176747E0,5.9332447E0,6.032117E0,9.16751E0,6.4900994E0,1.7653671E1,5.753426E0,3.413064E0,4.6151592E1,1.5870771E3,3.5389932E3,1.2367725E2,4.825028E1,1.07793434E2,1.2509481E2,1.1971186E1,1.090086E3,8.461155E1,1.1905299E1,3.894025E1,1.3080641E2,5.872051E1,1.1912179E3,1.1897876E2,1.888442E2,1.9195372E2,2.6688535E2,1.0819319E3,5.3934766E2,1.7415845E2,2.1586845E2,1.142853E1,1.5933821E2,4.9470505E2,2.1862144E1,2.8002893E1,1.02343094E2,1.4859246E1,8.759077E0,2.5588118E1,1.219759E1,1.07117605E1,3.9975634E0,9.797868E1,2.2873596E2,2.2758759E2,8.823989E1,2.681082E0,3.571548E1,1.26547485E2],"tree_param":{"num_deleted":"0","num_feature":"5","num_nodes":"121","size_leaf_vector":"1"}},{"base_weights":[-1.7507736E-2,-1.9295017E-1,4.0916908E-1,-4.7875533E-1,-9.065013E-2,2.8885517E-1,6.370536E-1,-5.4880875E-1,-9.453091E-2,-1.6264771E-1,1.7162308E-1,1.9517277E-1,5.5928373E-1,1.1927471E0,5.803432E-1,-7.672642E-1,-4.562612E-1,-1.841755E-1,6.375394E-1,-1.9310331E-1,3.4686077E-1,8.336448E-1,1.392921E-1,4.304324E-1,5.4386005E-2,6.3074726E-1,4.418201E-1,1.0255057E0,1.302724E0,8.458276E-1,5.329545E-1,-5.5757946E-1,-9.4179326E-1,-2.2700912E-1,-5.406937E-1,3.9312205E-1,-2.2841097E-1,8.019823E-1,1.7301373E-1,-7.926648E-3,-2.565381E-1,4.691422E-1,3.3503065E-1,1.019559E0,4.9991304E-1,1.04312554E-1,6.014843E-1,7.93334E-1,3.716302E-1,1.325412E-1,-5.311663E-1,7.2209495E-1,4.185769E-1,2.1903287E-1,5.495394E-1,1.1628922E0,8.350327E-1,8.2239425E-1,4.0034696E-1,9.4871074E-1,5.136225E-1,4.9253783E-1,8.445842E-1,-1.8529037E-1,6.321187E-2,-2.8500578E-1,1.1143836E-1,8.67754E-2,-8.98371E-2,-1.8044825E-1,-1.6797468E-4,-7.84726E-2,2.603859E-1,-2.6723577E-2,-1.305722E-1,3.4082916E-1,2.0104745E-1,-1.2964118E-1,1.5858476E-1,-5.3440005E-2,3.709504E-2,-3.548655E-2,-9.504177E-2,1.052315E-1,-1.06378846E-1,5.1315747E-2,3.2702118E-1,2.7460602E-1,6.42796E-2,2.6472382E-2,2.736756E-1,2.4436116E-1,1.3072081E-1,2.4956305E-1,-3.885394E-2,1.4644167E-1,8.5789904E-2,6.148008E-2,3.6816606E-3,-1.6054326E-1,1.4175627E-3,1.9443375E-1,2.922734E-1,3.727843E-2,2.1667461E-1,1.3492034E-1,-9.061086E-2,1.7461099E-1,-8.955104E-2,1.7613955E-1,3.7547216E-1,-1.8067813E-1,2.7918345E-1,3.360263E-1,-6.171371E-2,4.1300365E-1,2.595191E-1,2.2367635E-1,1.7003849E-3,4.2525828E-1,1.4342968E-1,2.5994995E-1,-1.0368073E-1],"categories":[],"categories_nodes":[],"categories_segments":[],"categories_sizes":[],"default_left":[0,0,1,0,0,1,0,0,0,1,0,1,0,0,0,0,0,0,0,1,0,0,1,0,0,0,0,0,0,0,1,0,1,0,0,0,0,0,0,0,0,0,0,0,0,0,0,0,0,0,0,0,0,0,0,0,0,0,0,0,0,0,0,0,0,0,0,0,0,0,0,0,0,0,0,0,0,0,0,0,0,0,0,0,0,0,0,0,0,0,0,0,0,0,0,0,0,0,0,0,0,0,0,0,0,0,0,0,0,0,0,0,0,0,0,0,0,0,0,0,0,0,0],"id":2,"left_children":[1,3,5,7,9,11,13,15,17,19,21,23,25,27,29,31,33,35,37,39,41,43,45,47,49,51,53,55,57,59,61,63,65,67,69,71,73,75,77,79,81,-1,83,85,87,89,91,93,95,97,99,101,103,105,107,109,111,113,-1,115,117,119,121,-1,-1,-1,-1,-1,-1,-1,-1,-1,-1,-1,-1,-1,-1,-1,-1,-1,-1,-1,-1,-1,-1,-1,-1,-1,-1,-1,-1,-1,-1,-1,-1,-1,-1,-1,-1,-1,-1,-1,-1,-1,-1,-1,-1,-1,-1,-1,-1,-1,-1,-1,-1,-1,-1,-1,-1,-1,-1,-1,-1],"loss_changes":[1.1709825E3,3.2405475E2,1.2478461E2,7.858685E1,1.5419397E2,7.551056E1,4.8913208E1,4.9604797E1,2.9763702E1,9.947597E1,3.7532352E1,7.345392E1,6.163513E0,1.327652E0,1.7543396E1,2.6329315E1,3.3519684E1,1.038729E1,3.64299E0,7.1013535E1,4.6832275E0,4.559517E0,2.7070171E1,1.7425476E1,6.3637383E1,8.900192E0,6.9263306E0,6.553421E-1,1.7910767E-1,6.8586884E0,1.4903931E1,1.5622993E1,4.6634827E0,1.7648544E1,4.1690918E1,9.262974E0,1.0772949E1,8.3693504E-1,3.2881806E0,3.459148E1,3.7481506E1,0E0,4.026722E0,2.8953056E0,3.505466E0,2.0193598E1,3.8073578E0,4.194977E0,7.0114365E0,1.0673941E1,3.5162354E-1,5.534546E0,1.2894657E1,1.1840042E1,5.6102448E0,9.787216E-1,4.6254787E0,2.6164336E0,0E0,4.6415405E0,6.2411184E0,1.3734589E1,3.905342E0,0E0,0E0,0E0,0E0,0E0,0E0,0E0,0E0,0E0,0E0,0E0,0E0,0E0,0E0,0E0,0E0,0E0,0E0,0E0,0E0,0E0,0E0,0E0,0E0,0E0,0E0,0E0,0E0,0E0,0E0,0E0,0E0,0E0,0E0,0E0,0E0,0E0,0E0,0E0,0E0,0E0,0E0,0E0,0E0,0E0,0E0,0E0,0E0,0E0,0E0,0E0,0E0,0E0,0E0,0E0,0E0,0E0,0E0,0E0,0E0],"parents":[2147483647,0,0,1,1,2,2,3,3,4,4,5,5,6,6,7,7,8,8,9,9,10,10,11,11,12,12,13,13,14,14,15,15,16,16,17,17,18,18,19,19,20,20,21,21,22,22,23,23,24,24,25,25,26,26,27,27,28,28,29,29,30,30,31,31,32,32,33,33,34,34,35,35,36,36,37,37,38,38,39,39,40,40,42,42,43,43,44,44,45,45,46,46,47,47,48,48,49,49,50,50,51,51,52,52,53,53,54,54,55,55,56,56,57,57,59,59,60,60,61,61,62,62],"right_children":[2,4,6,8,10,12,14,16,18,20,22,24,26,28,30,32,34,36,38,40,42,44,46,48,50,52,54,56,58,60,62,64,66,68,70,72,74,76,78,80,82,-1,84,86,88,90,92,94,96,98,100,102,104,106,108,110,112,114,-1,116,118,120,122,-1,-1,-1,-1,-1,-1,-1,-1,-1,-1,-1,-1,-1,-1,-1,-1,-1,-1,-1,-1,-1,-1,-1,-1,-1,-1,-1,-1,-1,-1,-1,-1,-1,-1,-1,-1,-1,-1,-1,-1,-1,-1,-1,-1,-1,-1,-1,-1,-1,-1,-1,-1,-1,-1,-1,-1,-1,-1,-1,-1],"split_conditions":[5E0,3E0,5.88E0,1.159E1,1E1,2E1,-5E1,2E0,7.692E1,5E1,-3.3333332E1,0E0,7.9424566E-1,1.525E1,5.316162E-1,8.7293166E-1,8.431173E-1,-1.6666666E1,9.35001E-1,0E0,2.27E0,8.9803267E-1,5E1,-5E1,5.83E0,3E2,8.5703087E-1,2.35E1,4.2E0,7.692E1,5E1,6.971E2,5E1,5.29E0,4.588E2,8.431173E-1,8.9090955E-1,7.7211267E-1,9.515287E-1,4E0,8.640117E-1,4.691422E-1,9.794728E-1,4.07E1,1.169E2,4.588E2,8.509327E-1,5.29E0,1.03E0,8.013489E-1,8.080289E-1,1.5E2,2.7633414E-1,8.364459E-1,2.55E1,5.4E0,2.48E1,3.8E0,4.0034696E-1,-4E1,2.7633414E-1,5E-1,9.7375643E-1,-1.8529037E-1,6.321187E-2,-2.8500578E-1,1.1143836E-1,8.67754E-2,-8.98371E-2,-1.8044825E-1,-1.6797468E-4,-7.84726E-2,2.603859E-1,-2.6723577E-2,-1.305722E-1,3.4082916E-1,2.0104745E-1,-1.2964118E-1,1.5858476E-1,-5.3440005E-2,3.709504E-2,-3.548655E-2,-9.504177E-2,1.052315E-1,-1.06378846E-1,5.1315747E-2,3.2702118E-1,2.7460602E-1,6.42796E-2,2.6472382E-2,2.736756E-1,2.4436116E-1,1.3072081E-1,2.4956305E-1,-3.885394E-2,1.4644167E-1,8.5789904E-2,6.148008E-2,3.6816606E-3,-1.6054326E-1,1.4175627E-3,1.9443375E-1,2.922734E-1,3.727843E-2,2.1667461E-1,1.3492034E-1,-9.061086E-2,1.7461099E-1,-8.955104E-2,1.7613955E-1,3.7547216E-1,-1.8067813E-1,2.7918345E-1,3.360263E-1,-6.171371E-2,4.1300365E-1,2.595191E-1,2.2367635E-1,1.7003849E-3,4.2525828E-1,1.4342968E-1,2.5994995E-1,-1.0368073E-1],"split_indices":[0,0,2,2,2,3,3,0,2,3,3,3,4,2,4,4,4,3,4,3,2,4,3,3,2,3,4,1,1,2,3,1,3,2,1,4,4,4,4,0,4,0,4,1,1,1,4,2,2,4,4,3,4,4,1,1,1,1,0,3,4,1,4,0,0,0,0,0,0,0,0,0,0,0,0,0,0,0,0,0,0,0,0,0,0,0,0,0,0,0,0,0,0,0,0,0,0,0,0,0,0,0,0,0,0,0,0,0,0,0,0,0,0,0,0,0,0,0,0,0,0,0,0],"split_type":[0,0,0,0,0,0,0,0,0,0,0,0,0,0,0,0,0,0,0,0,0,0,0,0,0,0,0,0,0,0,0,0,0,0,0,0,0,0,0,0,0,0,0,0,0,0,0,0,0,0,0,0,0,0,0,0,0,0,0,0,0,0,0,0,0,0,0,0,0,0,0,0,0,0,0,0,0,0,0,0,0,0,0,0,0,0,0,0,0,0,0,0,0,0,0,0,0,0,0,0,0,0,0,0,0,0,0,0,0,0,0,0,0,0,0,0,0,0,0,0,0,0,0],"sum_hessian":[1.5640828E4,1.1083871E4,4.5569565E3,2.9206104E3,8.1632607E3,2.9838635E3,1.5730929E3,2.4698655E3,4.50745E2,6.4052983E3,1.7579623E3,2.2174216E3,7.66442E2,1.4381804E2,1.4292748E3,7.328076E2,1.7370579E3,4.0223795E2,4.850704E1,6.0446064E3,3.6069208E2,8.07015E1,1.6772607E3,8.294029E2,1.3880187E3,4.7381094E2,2.9263107E2,6.115087E1,8.266716E1,2.1393008E2,1.2153447E3,3.3478326E2,3.9802435E2,4.6854562E2,1.2685122E3,2.8066566E1,3.741714E2,3.528842E1,1.3218616E1,1.5426068E3,4.5019995E3,2.20956E0,3.584825E2,5.0509052E1,3.019245E1,1.5603931E3,1.16867744E2,1.1390978E2,7.154931E2,1.2252545E3,1.6276424E2,3.2953137E2,1.4427956E2,9.636348E1,1.962676E2,3.256018E1,2.8590689E1,6.795901E0,7.587126E1,1.6192612E2,5.2003963E1,1.0781012E3,1.3724347E2,3.106932E2,2.4090054E1,3.958216E2,2.2027743E0,5.729208E1,4.1125354E2,1.1400664E3,1.284458E2,1.1987419E1,1.6079147E1,2.2441989E2,1.497515E2,7.828477E0,2.7459946E1,4.8129244E0,8.405691E0,6.7241815E2,8.7018866E2,1.3676588E3,3.1343408E3,3.5096298E2,7.519525E0,4.138156E0,4.6370895E1,1.1403274E1,1.8789177E1,1.5310471E3,2.9345905E1,4.942393E1,6.744382E1,1.0943768E2,4.472096E0,3.0117548E2,4.1431763E2,7.6442645E2,4.6082803E2,1.6156635E2,1.1979014E0,2.5753818E2,7.199318E1,7.398413E1,7.029543E1,6.688657E1,2.9476904E1,1.8932623E2,6.9413576E0,5.362845E0,2.7197336E1,1.4521623E0,2.7138527E1,5.20058E0,1.5953205E0,2.3946938E1,1.3797919E2,3.5379528E1,1.6624434E1,1.50767565E1,1.0630245E3,1.3502908E2,2.2143958E0],"tree_param":{"num_deleted":"0","num_feature":"5","num_nodes":"123","size_leaf_vector":"1"}},{"base_weights":[-1.3850805E-2,-2.553959E-1,1.6555697E-1,-3.0796772E-1,-3.187416E-2,3.2063484E-2,2.9071045E-1,-6.408621E-1,-2.6418057E-1,-8.913151E-2,5.2205014E-1,-1.00029364E-1,1.700181E-1,6.1084837E-1,2.3714724E-1,-2.7741054E-1,-7.38152E-1,-1.7527685E-1,-3.842626E-1,6.823529E-1,-1.0517082E-1,2.834918E-1,6.105608E-1,-1.2515773E-1,2.3888685E-1,1.528978E-1,7.607206E-1,5.0330824E-1,9.232188E-1,1.76978E-1,4.814828E-1,1.5597779E-1,-6.0198075E-1,-5.816352E-1,-8.1831276E-1,3.1496322E-1,-1.9721213E-1,-5.380757E-1,-2.4285236E-1,7.968131E-1,-2.4590203E-1,-1.24656506E-1,3.715842E-1,9.0626967E-1,1.4501606E-1,3.9288452E-1,8.067098E-1,3.5806277E-1,-1.4602071E-1,1.9188163E-1,8.4824264E-1,3.011917E-1,8.830351E-2,3.3241123E-1,1.111248E0,7.5312257E-1,4.1641328E-1,1.0797611E0,7.7079E-1,2.6893643E-1,-1.918524E-2,6.212543E-1,3.7650236E-1,-6.905425E-2,1.6509691E-1,-1.9255567E-1,2.6400372E-1,-2.0429274E-1,1.1820043E-1,-1.9933583E-1,-2.9024768E-1,2.3955196E-1,8.93234E-3,-8.6555645E-2,-3.0445518E-2,-2.3102799E-1,-1.4512967E-1,-1.20827936E-1,-3.185463E-2,2.9125642E-2,3.0214417E-1,1.95484E-1,-4.0921964E-2,1.5271564E-1,-3.4775328E-2,3.056436E-1,7.5899616E-2,-2.627971E-1,6.586288E-2,1.6633359E-1,-5.780169E-2,9.07079E-2,3.0086327E-1,-1.3706052E-1,1.2472411E-1,1.905589E-1,-4.7090176E-2,6.424646E-2,-2.7232388E-1,3.4599668E-1,1.9349035E-2,1.9197737E-1,7.173735E-2,1.35769695E-2,1.21696495E-1,1.9763373E-1,-1.2283368E-1,1.2507206E-1,4.0213653E-1,2.7731305E-1,1.3756199E-1,1.8070507E-1,8.7851234E-2,3.3828235E-1,1.9087352E-1,2.954767E-1,1.8302692E-1,1.5487404E-1,7.007829E-2,-4.093281E-2,3.88179E-2,2.6125294E-1,1.6422762E-1,7.157463E-2,1.3436486E-1],"categories":[],"categories_nodes":[],"categories_segments":[],"categories_sizes":[],"default_left":[0,0,0,0,0,0,0,0,0,0,0,1,0,0,1,0,0,0,0,0,1,0,0,0,0,1,0,0,0,0,0,0,0,0,0,0,0,0,0,0,0,0,0,0,0,0,0,0,0,0,0,0,0,0,0,0,0,0,0,0,0,0,0,0,0,0,0,0,0,0,0,0,0,0,0,0,0,0,0,0,0,0,0,0,0,0,0,0,0,0,0,0,0,0,0,0,0,0,0,0,0,0,0,0,0,0,0,0,0,0,0,0,0,0,0,0,0,0,0,0,0,0,0,0,0],"id":3,"left_children":[1,3,5,7,9,11,13,15,17,19,21,23,25,27,29,31,33,35,37,39,41,43,45,47,49,51,53,55,57,59,61,63,65,67,69,71,73,75,77,79,-1,81,83,85,87,89,91,93,95,97,99,101,103,105,107,109,111,113,115,117,119,121,123,-1,-1,-1,-1,-1,-1,-1,-1,-1,-1,-1,-1,-1,-1,-1,-1,-1,-1,-1,-1,-1,-1,-1,-1,-1,-1,-1,-1,-1,-1,-1,-1,-1,-1,-1,-1,-1,-1,-1,-1,-1,-1,-1,-1,-1,-1,-1,-1,-1,-1,-1,-1,-1,-1,-1,-1,-1,-1,-1,-1,-1,-1],"loss_changes":[6.612589E2,7.641089E1,1.4627646E2,7.657492E1,3.935698E1,7.724334E1,7.734476E1,2.1411514E1,4.9624023E1,1.3982476E1,2.281746E0,1.8472782E1,2.0851192E1,2.1272202E1,5.6852097E1,1.8477045E1,5.5668335E0,2.8842392E1,4.2919647E1,4.6124067E0,1.02852E1,2.742849E0,3.2666874E0,2.0383959E1,4.1286135E0,1.9286217E1,8.360443E0,1.0183281E1,3.0934143E0,5.6091705E1,1.0986649E1,8.769578E0,4.992441E0,1.641343E1,6.611328E0,1.5835807E1,2.2366936E1,1.1563446E1,2.2533634E1,3.1262531E0,0E0,9.753916E0,2.976138E0,1.7396879E-1,2.3576572E0,4.0548105E0,3.9708042E0,4.127331E0,1.6638428E1,3.6327705E0,2.4212098E0,1.2699715E1,1.9186888E1,6.951395E0,4.4622993E0,5.8093414E0,8.118473E0,9.520035E-1,2.387703E0,1.8382309E1,1.7322556E1,5.538872E0,4.217327E0,0E0,0E0,0E0,0E0,0E0,0E0,0E0,0E0,0E0,0E0,0E0,0E0,0E0,0E0,0E0,0E0,0E0,0E0,0E0,0E0,0E0,0E0,0E0,0E0,0E0,0E0,0E0,0E0,0E0,0E0,0E0,0E0,0E0,0E0,0E0,0E0,0E0,0E0,0E0,0E0,0E0,0E0,0E0,0E0,0E0,0E0,0E0,0E0,0E0,0E0,0E0,0E0,0E0,0E0,0E0,0E0,0E0,0E0,0E0,0E0,0E0,0E0],"parents":[2147483647,0,0,1,1,2,2,3,3,4,4,5,5,6,6,7,7,8,8,9,9,10,10,11,11,12,12,13,13,14,14,15,15,16,16,17,17,18,18,19,19,20,20,21,21,22,22,23,23,24,24,25,25,26,26,27,27,28,28,29,29,30,30,31,31,32,32,33,33,34,34,35,35,36,36,37,37,38,38,39,39,41,41,42,42,43,43,44,44,45,45,46,46,47,47,48,48,49,49,50,50,51,51,52,52,53,53,54,54,55,55,56,56,57,57,58,58,59,59,60,60,61,61,62,62],"right_children":[2,4,6,8,10,12,14,16,18,20,22,24,26,28,30,32,34,36,38,40,42,44,46,48,50,52,54,56,58,60,62,64,66,68,70,72,74,76,78,80,-1,82,84,86,88,90,92,94,96,98,100,102,104,106,108,110,112,114,116,118,120,122,124,-1,-1,-1,-1,-1,-1,-1,-1,-1,-1,-1,-1,-1,-1,-1,-1,-1,-1,-1,-1,-1,-1,-1,-1,-1,-1,-1,-1,-1,-1,-1,-1,-1,-1,-1,-1,-1,-1,-1,-1,-1,-1,-1,-1,-1,-1,-1,-1,-1,-1,-1,-1,-1,-1,-1,-1,-1,-1,-1,-1,-1,-1],"split_conditions":[4E0,1.032E1,5E0,2E0,7.692E1,7.26E0,-2.5E1,7.82625E-1,9.199598E-1,-4E1,1E2,5E1,3.031E2,1.416E1,5E1,2.743E2,8.7806004E-1,3.91E0,1.32E2,9.588415E-1,5E1,7.645538E-1,9.43E1,-3.3333332E1,7.1E0,0E0,8.5924065E-1,5.9E0,-5E1,6E0,6E0,1.881E2,9.848E2,6.971E2,3.158E2,8.1344384E-1,1.439E2,3E0,3E0,-6E1,-2.4590203E-1,2.61E1,9.314785E-1,1.76E2,7.889083E-1,9.356145E-1,2E0,3.76E1,1.8E0,7.07E0,1.098E2,7.7211267E-1,5E1,8.1504935E-1,3.394E2,-3.3333332E1,7.170269E-1,7.24403E-1,3.4E0,5.316162E-1,3.2550606E-1,6.374626E-1,2.17322E-1,-6.905425E-2,1.6509691E-1,-1.9255567E-1,2.6400372E-1,-2.0429274E-1,1.1820043E-1,-1.9933583E-1,-2.9024768E-1,2.3955196E-1,8.93234E-3,-8.6555645E-2,-3.0445518E-2,-2.3102799E-1,-1.4512967E-1,-1.20827936E-1,-3.185463E-2,2.9125642E-2,3.0214417E-1,1.95484E-1,-4.0921964E-2,1.5271564E-1,-3.4775328E-2,3.056436E-1,7.5899616E-2,-2.627971E-1,6.586288E-2,1.6633359E-1,-5.780169E-2,9.07079E-2,3.0086327E-1,-1.3706052E-1,1.2472411E-1,1.905589E-1,-4.7090176E-2,6.424646E-2,-2.7232388E-1,3.4599668E-1,1.9349035E-2,1.9197737E-1,7.173735E-2,1.35769695E-2,1.21696495E-1,1.9763373E-1,-1.2283368E-1,1.2507206E-1,4.0213653E-1,2.7731305E-1,1.3756199E-1,1.8070507E-1,8.7851234E-2,3.3828235E-1,1.9087352E-1,2.954767E-1,1.8302692E-1,1.5487404E-1,7.007829E-2,-4.093281E-2,3.88179E-2,2.6125294E-1,1.6422762E-1,7.157463E-2,1.3436486E-1],"split_indices":[0,2,0,0,2,2,3,4,4,3,2,3,1,2,3,1,4,2,1,4,3,4,1,3,2,3,4,1,3,0,0,1,1,1,1,4,1,0,0,3,0,1,4,1,4,4,0,1,2,2,1,4,3,4,1,3,4,4,1,4,4,4,4,0,0,0,0,0,0,0,0,0,0,0,0,0,0,0,0,0,0,0,0,0,0,0,0,0,0,0,0,0,0,0,0,0,0,0,0,0,0,0,0,0,0,0,0,0,0,0,0,0,0,0,0,0,0,0,0,0,0,0,0,0,0],"split_type":[0,0,0,0,0,0,0,0,0,0,0,0,0,0,0,0,0,0,0,0,0,0,0,0,0,0,0,0,0,0,0,0,0,0,0,0,0,0,0,0,0,0,0,0,0,0,0,0,0,0,0,0,0,0,0,0,0,0,0,0,0,0,0,0,0,0,0,0,0,0,0,0,0,0,0,0,0,0,0,0,0,0,0,0,0,0,0,0,0,0,0,0,0,0,0,0,0,0,0,0,0,0,0,0,0,0,0,0,0,0,0,0,0,0,0,0,0,0,0,0,0,0,0,0,0],"sum_hessian":[1.5257234E4,6.5023687E3,8.754866E3,5.2639263E3,1.2384423E3,4.2368916E3,4.5179746E3,6.1031726E2,4.653609E3,1.1231816E3,1.15260544E2,2.16457E3,2.0723213E3,6.4607745E2,3.8718972E3,1.2968752E2,4.8062976E2,2.6753506E3,1.9782584E3,2.2029493E1,1.1011522E3,3.2328915E1,8.293163E1,2.0157467E3,1.4882338E2,2.0151744E3,5.7146866E1,4.825579E2,1.6351955E2,3.1082056E3,7.636918E2,5.5756733E1,7.393078E1,1.6558142E2,3.150483E2,1.1400691E2,2.5613438E3,9.462304E2,1.032028E3,2.0905891E1,1.1236007E0,1.0586233E3,4.2528954E1,4.872195E0,2.745672E1,4.0732147E1,4.2199482E1,8.275872E1,1.932988E3,1.3938614E2,9.4372425E0,6.1033057E2,1.4048439E3,2.6596691E1,3.0550175E1,1.2255564E2,3.6000226E2,7.766991E1,8.584964E1,2.1159216E3,9.9228375E2,3.2545767E2,4.382341E2,2.8381111E1,2.7375624E1,7.2545906E1,1.384872E0,1.5055385E2,1.5027575E1,1.5777606E2,1.5727226E2,4.1627213E1,7.23797E1,1.3099088E3,1.2514349E3,1.7697958E2,7.692508E2,4.746866E2,5.573414E2,5.169585E0,1.5736307E1,1.4972968E1,1.0436503E3,3.3139835E1,9.389118E0,3.678864E0,1.1933309E0,1.1362504E0,2.632047E1,3.196565E1,8.766497E0,1.2528875E1,2.9670609E1,5.013308E0,7.774541E1,2.5923008E1,1.907065E3,1.3740816E2,1.9779868E0,6.453581E0,2.9836612E0,9.3073006E1,5.1725757E2,1.2380518E3,1.6679216E2,1.8548546E1,8.048144E0,8.2815695E0,2.2268604E1,7.61489E1,4.640673E1,1.4218738E2,2.1781488E2,6.871453E1,8.955375E0,3.4607018E1,5.1242626E1,2.62868E2,1.8530537E3,5.5464294E2,4.3764078E2,7.18303E1,2.5362738E2,1.5093747E2,2.8729663E2],"tree_param":{"num_deleted":"0","num_feature":"5","num_nodes":"125","size_leaf_vector":"1"}},{"base_weights":[-1.0756796E-2,-1.8955019E-1,1.1772805E-1,-4.4099122E-1,-1.5598333E-1,4.6234944E-1,9.052165E-2,-1.7463179E-1,-5.5806106E-1,-1.7246124E-1,2.7199596E-1,6.216046E-1,3.4816965E-1,5.6515872E-2,3.148682E-1,-1.3751409E-2,-4.5698577E-1,-5.9175396E-1,4.1015324E-1,-2.1527587E-1,5.854983E-4,-4.67765E-2,4.2211694E-1,4.8053452E-1,8.8774604E-1,7.047629E-1,2.6194704E-1,2.0760433E-3,1.8270831E-1,2.9734552E-1,5.9988654E-1,-4.0465897E-1,1.0847159E-1,-6.24145E-1,5.6347124E-2,-6.028584E-1,6.6056347E-1,6.3563037E-1,-2.8170705E-1,-2.5833504E-2,-2.6008186E-1,-3.3562515E-2,4.8563054E-1,1.1789281E0,-1.3018039E-1,3.4724745E-1,9.833854E-1,5.2202225E-1,-2.4943504E-1,6.9312227E-1,9.481493E-1,4.4449273E-1,7.7369267E-1,2.0778814E-1,7.862352E-1,-8.1445746E-2,7.9605184E-2,1.0839526E-1,3.1760043E-1,3.48725E-1,3.702598E-2,4.137829E-1,8.794435E-1,2.0342873E-1,-2.1231198E-1,1.55572E-1,-5.7756264E-2,-2.0054077E-1,2.0219764E-1,3.0545545E-1,-2.4078848E-2,8.342755E-3,-1.8800788E-1,9.68351E-2,2.544102E-1,-3.7487507E-2,2.5401112E-1,1.17769934E-1,-2.0116329E-1,2.5315893E-1,-1.5077642E-2,-8.913843E-2,-9.046307E-3,-1.9571414E-2,1.0444547E-1,9.9332824E-2,2.9870653E-1,4.613431E-1,2.883908E-2,-6.1674286E-2,3.4336102E-1,1.2577821E-1,-3.326992E-2,3.9204413E-1,1.23336576E-1,1.4869653E-1,3.8676798E-1,-2.5879443E-1,2.3510239E-1,3.3581266E-1,1.7710496E-1,2.889428E-1,1.9157175E-2,-5.8041666E-2,2.4058329E-1,2.5720167E-1,1.4099321E-1,1.09164804E-1,1.5370827E-2,2.8669104E-1,-3.7108764E-2,6.0052697E-2,-3.0500626E-2,4.1767843E-2,-4.102193E-3,2.7675053E-2,1.5290481E-1,2.611825E-1,9.0592444E-2,5.4962765E-2,1.1627256E-1,-2.7638534E-2,1.4093626E-1,1.6409437E-1,-1.2575985E-1,3.158303E-1,5.9776463E-2],"categories":[],"categories_nodes":[],"categories_segments":[],"categories_sizes":[],"default_left":[0,0,0,0,1,0,1,0,0,0,0,0,0,1,0,0,0,1,0,0,0,0,0,0,0,0,0,0,0,0,0,0,0,0,0,0,0,0,0,0,0,0,0,0,0,0,0,0,0,0,0,0,0,0,0,0,0,0,0,0,0,0,0,0,0,0,0,0,0,0,0,0,0,0,0,0,0,0,0,0,0,0,0,0,0,0,0,0,0,0,0,0,0,0,0,0,0,0,0,0,0,0,0,0,0,0,0,0,0,0,0,0,0,0,0,0,0,0,0,0,0,0,0,0,0,0,0],"id":4,"left_children":[1,3,5,7,9,11,13,15,17,19,21,23,25,27,29,31,33,35,37,39,41,43,45,47,49,51,53,55,57,59,61,63,65,67,69,71,73,75,77,79,81,83,85,87,89,91,93,95,97,99,101,103,105,107,109,111,113,115,117,119,121,123,125,-1,-1,-1,-1,-1,-1,-1,-1,-1,-1,-1,-1,-1,-1,-1,-1,-1,-1,-1,-1,-1,-1,-1,-1,-1,-1,-1,-1,-1,-1,-1,-1,-1,-1,-1,-1,-1,-1,-1,-1,-1,-1,-1,-1,-1,-1,-1,-1,-1,-1,-1,-1,-1,-1,-1,-1,-1,-1,-1,-1,-1,-1,-1,-1],"loss_changes":[3.428307E2,5.2598618E1,8.137454E1,2.2802704E1,3.8881714E1,1.133255E1,6.139206E1,1.0245322E1,1.687033E1,3.9291275E1,9.808225E0,9.482964E0,1.1258816E1,4.8028107E1,5.1120453E0,6.9619784E0,7.061512E0,7.2536926E0,2.9451423E0,3.6079453E1,1.745505E1,6.9402237E0,5.5062447E0,5.420475E0,4.0386963E-1,9.456291E-1,8.39225E0,3.1639559E1,2.1086823E1,1.336116E1,2.7769337E0,1.1866087E1,1.3813264E1,4.0094757E0,2.8452036E0,7.3703613E0,3.085637E-2,2.3020272E0,1.5875727E0,1.734007E1,2.9276337E1,1.1926794E1,5.1331425E0,1.5344272E0,6.29617E0,4.148363E0,2.393077E0,2.7111816E0,7.0561075E0,4.385233E-1,8.156967E-1,4.123211E0,1.0064697E0,6.688237E0,4.411377E0,1.3416535E1,1.4094257E1,8.764748E0,6.2000046E0,5.2981873E0,9.318353E0,4.4600315E0,2.52989E0,0E0,0E0,0E0,0E0,0E0,0E0,0E0,0E0,0E0,0E0,0E0,0E0,0E0,0E0,0E0,0E0,0E0,0E0,0E0,0E0,0E0,0E0,0E0,0E0,0E0,0E0,0E0,0E0,0E0,0E0,0E0,0E0,0E0,0E0,0E0,0E0,0E0,0E0,0E0,0E0,0E0,0E0,0E0,0E0,0E0,0E0,0E0,0E0,0E0,0E0,0E0,0E0,0E0,0E0,0E0,0E0,0E0,0E0,0E0,0E0,0E0,0E0,0E0,0E0],"parents":[2147483647,0,0,1,1,2,2,3,3,4,4,5,5,6,6,7,7,8,8,9,9,10,10,11,11,12,12,13,13,14,14,15,15,16,16,17,17,18,18,19,19,20,20,21,21,22,22,23,23,24,24,25,25,26,26,27,27,28,28,29,29,30,30,31,31,32,32,33,33,34,34,35,35,36,36,37,37,38,38,39,39,40,40,41,41,42,42,43,43,44,44,45,45,46,46,47,47,48,48,49,49,50,50,51,51,52,52,53,53,54,54,55,55,56,56,57,57,58,58,59,59,60,60,61,61,62,62],"right_children":[2,4,6,8,10,12,14,16,18,20,22,24,26,28,30,32,34,36,38,40,42,44,46,48,50,52,54,56,58,60,62,64,66,68,70,72,74,76,78,80,82,84,86,88,90,92,94,96,98,100,102,104,106,108,110,112,114,116,118,120,122,124,126,-1,-1,-1,-1,-1,-1,-1,-1,-1,-1,-1,-1,-1,-1,-1,-1,-1,-1,-1,-1,-1,-1,-1,-1,-1,-1,-1,-1,-1,-1,-1,-1,-1,-1,-1,-1,-1,-1,-1,-1,-1,-1,-1,-1,-1,-1,-1,-1,-1,-1,-1,-1,-1,-1,-1,-1,-1,-1,-1,-1,-1,-1,-1,-1],"split_conditions":[4E0,2E0,-3.3333332E1,7.9966867E-1,5E1,-5E1,5E1,3.48E2,6.5E1,1E1,1.649E2,1.159E1,5.9E0,8.29E0,9.494331E-1,6.995564E-1,1.143E1,5E1,2E1,8.18323E-1,1E2,5.66E1,4.764E2,2.743E2,1.711E1,1.5E0,1.933E2,5E0,5E0,9.035998E-1,3.68E1,1.303E2,7.5703996E-1,9.848E2,1.196E1,1.199E2,6.6666664E1,1.76E2,1E2,3.18E0,3.031E2,3.994E2,1.551E2,8.9185417E-1,1.5E2,1.435E1,9.301495E-1,-6E1,4.268E2,1.25E1,9.314785E-1,2.94E0,8.2337755E-1,8.3227843E-1,9.287015E-1,1.25E1,6E0,2.797E2,5E-1,2.17322E-1,8.51E0,2.48E1,9.67E1,2.0342873E-1,-2.1231198E-1,1.55572E-1,-5.7756264E-2,-2.0054077E-1,2.0219764E-1,3.0545545E-1,-2.4078848E-2,8.342755E-3,-1.8800788E-1,9.68351E-2,2.544102E-1,-3.7487507E-2,2.5401112E-1,1.17769934E-1,-2.0116329E-1,2.5315893E-1,-1.5077642E-2,-8.913843E-2,-9.046307E-3,-1.9571414E-2,1.0444547E-1,9.9332824E-2,2.9870653E-1,4.613431E-1,2.883908E-2,-6.1674286E-2,3.4336102E-1,1.2577821E-1,-3.326992E-2,3.9204413E-1,1.23336576E-1,1.4869653E-1,3.8676798E-1,-2.5879443E-1,2.3510239E-1,3.3581266E-1,1.7710496E-1,2.889428E-1,1.9157175E-2,-5.8041666E-2,2.4058329E-1,2.5720167E-1,1.4099321E-1,1.09164804E-1,1.5370827E-2,2.8669104E-1,-3.7108764E-2,6.0052697E-2,-3.0500626E-2,4.1767843E-2,-4.102193E-3,2.7675053E-2,1.5290481E-1,2.611825E-1,9.0592444E-2,5.4962765E-2,1.1627256E-1,-2.7638534E-2,1.4093626E-1,1.6409437E-1,-1.2575985E-1,3.158303E-1,5.9776463E-2],"split_indices":[0,0,3,4,3,3,3,1,2,2,1,2,1,2,4,4,2,3,3,4,2,1,1,1,2,1,1,0,0,4,1,1,4,1,2,1,3,1,2,2,1,1,1,4,3,2,4,3,1,2,4,2,4,4,4,1,0,1,1,4,2,1,1,0,0,0,0,0,0,0,0,0,0,0,0,0,0,0,0,0,0,0,0,0,0,0,0,0,0,0,0,0,0,0,0,0,0,0,0,0,0,0,0,0,0,0,0,0,0,0,0,0,0,0,0,0,0,0,0,0,0,0,0,0,0,0,0],"split_type":[0,0,0,0,0,0,0,0,0,0,0,0,0,0,0,0,0,0,0,0,0,0,0,0,0,0,0,0,0,0,0,0,0,0,0,0,0,0,0,0,0,0,0,0,0,0,0,0,0,0,0,0,0,0,0,0,0,0,0,0,0,0,0,0,0,0,0,0,0,0,0,0,0,0,0,0,0,0,0,0,0,0,0,0,0,0,0,0,0,0,0,0,0,0,0,0,0,0,0,0,0,0,0,0,0,0,0,0,0,0,0,0,0,0,0,0,0,0,0,0,0,0,0,0,0,0,0],"sum_hessian":[1.4921721E4,6.2391465E3,8.682574E3,7.3338745E2,5.505759E3,6.341281E2,8.0484463E3,2.2468095E2,5.0870648E2,5.302212E3,2.03547E2,2.6294073E2,3.7118738E2,6.9901523E3,1.0582943E3,1.4379677E2,8.088419E1,4.9197507E2,1.6731438E1,4.2503584E3,1.0518533E3,6.538804E1,1.3815897E2,1.7368391E2,8.9256805E1,7.0878685E1,3.003087E2,4.884136E3,2.1060159E3,9.989245E2,5.9369793E1,3.3700653E1,1.1009611E2,6.085259E1,2.0031607E1,4.8816504E2,3.81001E0,1.2680228E1,4.0512094E0,8.132912E2,3.4370674E3,9.835411E2,6.83122E1,3.3290534E0,6.2058983E1,1.2332668E2,1.4832279E1,1.6461302E2,9.0708885E0,2.4095192E1,6.516161E1,1.640059E1,5.4478092E1,2.7345694E2,2.685174E1,2.3511753E3,2.532961E3,1.359088E3,7.469279E2,8.339813E2,1.6494316E2,3.713129E1,2.2238504E1,7.0990324E0,2.6601622E1,4.629558E1,6.3800526E1,5.931245E1,1.5401392E0,1.6886939E0,1.8342913E1,1.7771053E1,4.7039398E2,2.3313046E0,1.4787052E0,2.843142E0,9.837086E0,1.478239E0,2.5729704E0,2.1300726E1,7.919905E2,2.9598755E3,4.7719186E2,9.089439E2,7.45972E1,5.3694656E1,1.4617541E1,2.1847281E0,1.1443251E0,5.9385033E1,2.673949E0,1.0664821E2,1.6678476E1,8.656349E0,6.1759305E0,1.6073495E2,3.8780668E0,5.795756E0,3.275133E0,2.759258E0,2.1335934E1,6.3987522E1,1.1740886E0,6.0541453E0,1.0346447E1,4.128497E1,1.3193125E1,1.3626543E2,1.3719153E2,2.2595007E1,4.2567334E0,1.5692816E2,2.194247E3,1.5449728E3,9.879883E2,1.3077047E3,5.13833E1,1.9021458E1,7.279065E2,1.5962732E2,6.74354E2,1.2763776E2,3.7305412E1,3.2308357E1,4.8229322E0,1.7285975E1,4.9525304E0],"tree_param":{"num_deleted":"0","num_feature":"5","num_nodes":"127","size_leaf_vector":"1"}},{"base_weights":[-7.878981E-3,-1.3901839E-1,8.394174E-2,-2.4021398E-1,-7.0472375E-2,1.8144304E-1,2.782432E-2,-1.6595039E-1,-3.891724E-1,-1.9442767E-1,-3.1802275E-3,4.5693827E-1,1.5170448E-1,1.815166E-1,-1.4916138E-3,-2.1067056E-1,4.1271266E-2,-4.059025E-1,6.117156E-1,-5.7664998E-2,-3.8019067E-1,2.0542096E-1,-3.1255536E-2,2.8636253E-1,6.325158E-1,2.0090554E-2,2.1017769E-1,3.4483626E-1,1.0966129E-1,-4.784927E-2,1.1331657E-1,-4.7203287E-1,-1.7531282E-1,3.4640968E-1,-2.7173555E-2,-5.509919E-1,-3.1617668E-1,9.1579604E-1,-6.078954E-2,1.246131E0,-7.7327035E-2,4.7553542E-1,-3.8741478E-1,1.6341342E-1,1.1815422E0,-5.976882E-2,3.0681837E-1,5.236264E-1,1.6931942E-1,8.3314306E-1,5.0563097E-1,-1.3268922E-1,2.2168782E-1,2.8982574E-1,1.5061879E-1,2.6608533E-1,8.562517E-1,7.069899E-2,4.7881612E-1,-1.0305826E-1,1.9586578E-2,7.457415E-2,2.6130554E-1,1.346474E-1,-1.7084542E-1,-1.0044206E-1,-3.121748E-2,2.2852977E-1,2.9853683E-2,-8.625011E-2,7.4166562E-3,-1.7359047E-1,5.2896116E-2,-1.5547621E-1,-7.293797E-2,1.17753096E-1,3.7608275E-1,-8.295039E-2,8.1943914E-2,4.7827587E-1,-2.8826239E-2,-2.8982596E-2,8.4162086E-2,-1.2006499E-1,7.100906E-2,6.742983E-2,-6.143831E-2,4.187625E-1,3.7497394E-2,-3.558816E-2,2.9092161E-2,4.0566776E-2,2.3549686E-1,1.0842867E-1,2.6317748E-1,1.4307822E-1,1.6009089E-2,-7.0266314E-2,2.5770915E-1,3.521124E-1,1.3470802E-1,6.131831E-2,-6.3672416E-2,2.6502496E-1,5.5462334E-2,9.345016E-2,-1.3735415E-2,1.9020248E-2,7.735524E-2,1.7047065E-1,4.986311E-2,3.0533397E-1,9.768551E-2,-8.704861E-2,3.194425E-2,-7.845152E-2,1.7185403E-1,-1.7776188E-3,-4.2669695E-2,-2.9987758E-3,7.834786E-2,-3.2635548E-4,4.0689208E-2,6.4375766E-2,1.4455295E-1],"categories":[],"categories_nodes":[],"categories_segments":[],"categories_sizes":[],"default_left":[0,0,0,0,0,0,0,0,1,0,0,0,0,0,0,0,0,0,0,0,0,0,0,0,0,0,0,0,0,0,1,0,0,0,0,0,0,0,0,0,0,0,0,0,0,0,0,0,0,0,0,0,0,0,0,0,0,0,0,0,0,0,0,0,0,0,0,0,0,0,0,0,0,0,0,0,0,0,0,0,0,0,0,0,0,0,0,0,0,0,0,0,0,0,0,0,0,0,0,0,0,0,0,0,0,0,0,0,0,0,0,0,0,0,0,0,0,0,0,0,0,0,0,0,0],"id":5,"left_children":[1,3,5,7,9,11,13,15,17,19,21,23,25,27,29,31,33,35,37,39,41,43,45,47,49,51,53,55,57,59,61,63,65,67,69,71,73,75,77,79,81,-1,83,85,87,89,91,93,95,97,99,101,103,105,107,109,111,113,115,117,119,121,123,-1,-1,-1,-1,-1,-1,-1,-1,-1,-1,-1,-1,-1,-1,-1,-1,-1,-1,-1,-1,-1,-1,-1,-1,-1,-1,-1,-1,-1,-1,-1,-1,-1,-1,-1,-1,-1,-1,-1,-1,-1,-1,-1,-1,-1,-1,-1,-1,-1,-1,-1,-1,-1,-1,-1,-1,-1,-1,-1,-1,-1,-1],"loss_changes":[1.7634074E2,4.1817543E1,4.712475E1,2.6872559E1,3.0002352E1,2.5708725E1,2.463815E1,1.5083191E1,1.3801285E1,3.21313E1,1.3665923E1,8.984985E0,2.1862572E1,1.0241924E1,2.4451946E1,1.2282974E1,6.0572596E0,1.0197052E1,2.8583636E0,1.8813204E1,8.230904E0,1.1157061E1,1.9842617E1,4.2730713E0,3.3969307E0,2.6983849E1,9.288322E0,1.0532469E1,8.736775E0,1.2186766E1,7.5572968E0,1.4511684E1,1.3378323E1,5.372341E0,3.2150214E0,6.195305E0,7.175167E0,1.1873174E0,4.5047718E-1,5.248846E0,4.996773E0,0E0,4.371834E0,6.067368E0,2.375451E0,1.7516426E1,1.3032205E1,2.6315918E0,3.778923E0,1.764164E0,3.0437088E0,1.3410372E1,9.036861E0,6.128891E0,1.0529934E1,6.9360695E0,2.6857052E0,7.1680765E0,4.190279E0,6.847109E0,1.0536947E1,4.8448887E0,2.7175007E0,0E0,0E0,0E0,0E0,0E0,0E0,0E0,0E0,0E0,0E0,0E0,0E0,0E0,0E0,0E0,0E0,0E0,0E0,0E0,0E0,0E0,0E0,0E0,0E0,0E0,0E0,0E0,0E0,0E0,0E0,0E0,0E0,0E0,0E0,0E0,0E0,0E0,0E0,0E0,0E0,0E0,0E0,0E0,0E0,0E0,0E0,0E0,0E0,0E0,0E0,0E0,0E0,0E0,0E0,0E0,0E0,0E0,0E0,0E0,0E0,0E0,0E0],"parents":[2147483647,0,0,1,1,2,2,3,3,4,4,5,5,6,6,7,7,8,8,9,9,10,10,11,11,12,12,13,13,14,14,15,15,16,16,17,17,18,18,19,19,20,20,21,21,22,22,23,23,24,24,25,25,26,26,27,27,28,28,29,29,30,30,31,31,32,32,33,33,34,34,35,35,36,36,37,37,38,38,39,39,40,40,42,42,43,43,44,44,45,45,46,46,47,47,48,48,49,49,50,50,51,51,52,52,53,53,54,54,55,55,56,56,57,57,58,58,59,59,60,60,61,61,62,62],"right_children":[2,4,6,8,10,12,14,16,18,20,22,24,26,28,30,32,34,36,38,40,42,44,46,48,50,52,54,56,58,60,62,64,66,68,70,72,74,76,78,80,82,-1,84,86,88,90,92,94,96,98,100,102,104,106,108,110,112,114,116,118,120,122,124,-1,-1,-1,-1,-1,-1,-1,-1,-1,-1,-1,-1,-1,-1,-1,-1,-1,-1,-1,-1,-1,-1,-1,-1,-1,-1,-1,-1,-1,-1,-1,-1,-1,-1,-1,-1,-1,-1,-1,-1,-1,-1,-1,-1,-1,-1,-1,-1,-1,-1,-1,-1,-1,-1,-1,-1,-1,-1,-1,-1,-1,-1],"split_conditions":[4E0,3E0,7.846667E-1,9.2655575E-1,8.39E1,-4E1,0E0,1.212E1,5E1,9.179462E-1,5.12E0,8.01E0,3.2550606E-1,1.71E1,5E1,9.93E1,1.14E2,9.494331E-1,6.6666664E1,2.47E0,2.05E0,9.769423E-1,3.877E2,-8E1,4.7712126E-1,2E1,9.2E0,1.42E1,1.608E2,6.95E0,1E2,6.775858E-1,2E0,1.786E1,1.476E2,3.639E1,2E0,3.572E2,9.5295453E-1,5.57E1,5.476E1,4.7553542E-1,7.692E1,2.553E2,4.96E0,9.21E0,9.390283E-1,5.561485E-1,5.9E0,8.91E0,8.46E0,6E0,2.5E1,2.521E1,7.98E0,2.6E0,9.4113153E-1,3.45E0,-8E1,1.2E1,1.589E2,6.02E0,9.57E0,1.346474E-1,-1.7084542E-1,-1.0044206E-1,-3.121748E-2,2.2852977E-1,2.9853683E-2,-8.625011E-2,7.4166562E-3,-1.7359047E-1,5.2896116E-2,-1.5547621E-1,-7.293797E-2,1.17753096E-1,3.7608275E-1,-8.295039E-2,8.1943914E-2,4.7827587E-1,-2.8826239E-2,-2.8982596E-2,8.4162086E-2,-1.2006499E-1,7.100906E-2,6.742983E-2,-6.143831E-2,4.187625E-1,3.7497394E-2,-3.558816E-2,2.9092161E-2,4.0566776E-2,2.3549686E-1,1.0842867E-1,2.6317748E-1,1.4307822E-1,1.6009089E-2,-7.0266314E-2,2.5770915E-1,3.521124E-1,1.3470802E-1,6.131831E-2,-6.3672416E-2,2.6502496E-1,5.5462334E-2,9.345016E-2,-1.3735415E-2,1.9020248E-2,7.735524E-2,1.7047065E-1,4.986311E-2,3.0533397E-1,9.768551E-2,-8.704861E-2,3.194425E-2,-7.845152E-2,1.7185403E-1,-1.7776188E-3,-4.2669695E-2,-2.9987758E-3,7.834786E-2,-3.2635548E-4,4.0689208E-2,6.4375766E-2,1.4455295E-1],"split_indices":[0,0,4,4,1,3,3,2,3,4,2,2,4,1,3,1,1,4,3,2,2,4,1,3,4,3,1,1,1,2,3,4,0,2,1,2,0,1,4,1,2,0,2,1,2,2,4,4,1,2,2,0,3,2,2,1,4,2,3,1,1,2,2,0,0,0,0,0,0,0,0,0,0,0,0,0,0,0,0,0,0,0,0,0,0,0,0,0,0,0,0,0,0,0,0,0,0,0,0,0,0,0,0,0,0,0,0,0,0,0,0,0,0,0,0,0,0,0,0,0,0,0,0,0,0],"split_type":[0,0,0,0,0,0,0,0,0,0,0,0,0,0,0,0,0,0,0,0,0,0,0,0,0,0,0,0,0,0,0,0,0,0,0,0,0,0,0,0,0,0,0,0,0,0,0,0,0,0,0,0,0,0,0,0,0,0,0,0,0,0,0,0,0,0,0,0,0,0,0,0,0,0,0,0,0,0,0,0,0,0,0,0,0,0,0,0,0,0,0,0,0,0,0,0,0,0,0,0,0,0,0,0,0,0,0,0,0,0,0,0,0,0,0,0,0,0,0,0,0,0,0,0,0],"sum_hessian":[1.4642672E4,6.0300176E3,8.612654E3,2.4340647E3,3.5959531E3,3.1454153E3,5.467239E3,1.6256881E3,8.083766E2,1.2646039E3,2.331349E3,3.050545E2,2.8403608E3,8.7496075E2,4.5922783E3,1.3371116E3,2.8857648E2,7.956712E2,1.270539E1,7.291203E2,5.354835E2,2.7580264E2,2.0555466E3,1.5606572E2,1.4898877E2,8.7414435E2,1.9662164E3,2.6617462E2,6.0878613E2,3.2717732E3,1.3205049E3,1.5786118E2,1.1792504E3,5.2126537E1,2.3644995E2,3.0207147E2,4.935997E2,8.500176E0,4.205214E0,9.905508E0,7.192148E2,1.1612016E0,5.343223E2,2.655424E2,1.0260251E1,1.8964246E3,1.5912196E2,5.04078E1,1.0565792E2,5.5564854E1,9.342392E1,4.9747583E2,3.766685E2,8.395804E2,1.1266361E3,2.319741E2,3.4200516E1,5.517441E2,5.704208E1,1.798683E3,1.4730902E3,1.0477228E3,2.727822E2,1.47622E1,1.4309897E2,3.6300723E2,8.1624316E2,1.8656054E1,3.3470486E1,3.8546677E1,1.9790327E2,2.9120795E2,1.086354E1,1.2943935E2,3.6416037E2,4.182788E0,4.3173885E0,2.6593518E0,1.5458621E0,7.7163873E0,2.1891208E0,6.831379E2,3.6076904E1,5.239341E2,1.0388232E1,2.2794978E2,3.7592613E1,8.262875E0,1.9973761E0,1.3788837E3,5.175409E2,1.1804375E2,4.1078213E1,3.5943794E1,1.4464004E1,2.8072927E1,7.758499E1,1.1251752E0,5.443968E1,5.755754E0,8.766817E1,9.468806E1,4.0278778E2,1.8638588E1,3.580299E2,7.887145E2,5.0865852E1,6.221759E2,5.0446017E2,5.646424E1,1.7550987E2,2.5515417E1,8.685098E0,4.9132442E1,5.0261163E2,6.2278643E0,5.0814217E1,5.17265E2,1.281418E3,1.3132332E3,1.5985706E2,4.683365E2,5.793862E2,2.2672484E2,4.605736E1],"tree_param":{"num_deleted":"0","num_feature":"5","num_nodes":"125","size_leaf_vector":"1"}},{"base_weights":[-5.9232335E-3,-5.813577E-2,1.1459613E-1,-1.7892648E-1,-2.1803427E-2,5.5512756E-2,2.0501156E-1,-1.2173523E-1,-3.0488205E-1,1.1561141E-1,-4.0531226E-2,1.16579264E-1,-3.2691322E-2,5.5116916E-1,1.8347457E-1,2.2368245E-1,-1.4659758E-1,-4.4782397E-1,-2.2696328E-1,1.8428461E-1,-7.946307E-2,-6.627645E-2,6.036549E-2,3.1029522E-1,3.3055283E-2,-1.1682367E-1,1.06284775E-1,-1.1677435E-2,6.0184056E-1,6.909497E-1,1.7377558E-1,-1.1895161E-1,3.724864E-1,-1.8643493E-2,-1.9657272E-1,-4.7105223E-1,1.7405339E-1,-2.8912854E-1,-2.370393E-2,4.6856782E-1,1.5675822E-1,-4.5237133E-1,1.2699507E-1,1.1584411E-2,-1.0973361E-1,1.5668083E-2,2.0583193E-1,3.92973E-1,1.3056004E-2,6.25329E-2,-2.1806367E-1,-6.0506757E-2,-3.2010612E-1,2.4735789E-1,-7.193487E-2,2.321261E-1,-2.6994616E-1,1.3014686E-1,6.4102453E-1,4.2926487E-1,1.0767897E0,1.6264227E-1,6.36946E-1,-1.5717259E-1,6.905203E-2,1.3935983E-1,-8.848024E-2,-2.3800539E-2,9.011784E-2,-7.5463876E-2,2.045722E-3,-1.4863506E-1,5.5187177E-2,2.1791561E-1,-2.6329705E-1,-5.8333356E-2,-1.4935814E-1,-1.4167042E-1,2.920617E-2,1.6995862E-1,-2.2102062E-1,-5.5979773E-2,5.864097E-2,-2.2420323E-1,-9.742455E-2,-6.0744934E-2,7.82775E-2,3.802674E-1,2.6295087E-3,-5.1150035E-2,-1.9674493E-2,-1.2011987E-2,6.214014E-2,1.1561217E-1,3.0190123E-2,1.07522264E-1,2.4746269E-1,3.9987653E-2,-7.343754E-2,-2.6116751E-2,3.8822718E-2,-1.9075036E-1,1.2387873E-3,6.0569566E-2,-2.5567131E-2,-9.326487E-2,-1.9020033E-1,9.5807865E-2,-9.314875E-2,-9.5956065E-3,-2.418881E-1,-1.0000984E-1,1.9467543E-1,2.4637014E-1,-7.08587E-2,2.606523E-1,1.5758312E-1,1.7736419E-1,-8.743505E-2,5.567939E-2,3.4939528E-1,3.692807E-2,8.0724835E-2,1.2158242E-1,3.250384E-1],"categories":[],"categories_nodes":[],"categories_segments":[],"categories_sizes":[],"default_left":[0,0,1,0,0,0,0,0,0,0,0,0,0,0,0,0,0,0,0,0,0,0,0,0,0,0,0,0,0,0,0,0,0,0,0,0,0,0,1,0,0,0,0,0,0,0,0,0,0,0,0,0,0,1,0,0,0,0,0,0,0,0,0,0,0,0,0,0,0,0,0,0,0,0,0,0,0,0,0,0,0,0,0,0,0,0,0,0,0,0,0,0,0,0,0,0,0,0,0,0,0,0,0,0,0,0,0,0,0,0,0,0,0,0,0,0,0,0,0,0,0,0,0,0,0],"id":6,"left_children":[1,3,5,7,9,11,13,15,17,19,21,23,25,27,29,31,33,35,37,39,41,43,45,47,49,51,53,55,57,59,61,63,65,67,69,71,73,75,77,79,81,83,85,87,89,91,93,95,97,99,101,103,105,107,109,111,-1,113,115,117,119,121,123,-1,-1,-1,-1,-1,-1,-1,-1,-1,-1,-1,-1,-1,-1,-1,-1,-1,-1,-1,-1,-1,-1,-1,-1,-1,-1,-1,-1,-1,-1,-1,-1,-1,-1,-1,-1,-1,-1,-1,-1,-1,-1,-1,-1,-1,-1,-1,-1,-1,-1,-1,-1,-1,-1,-1,-1,-1,-1,-1,-1,-1,-1],"loss_changes":[9.080972E1,4.4184536E1,2.3291645E1,1.6733772E1,1.9927908E1,1.4221429E1,1.2748703E1,1.3797445E1,7.9882812E0,1.24573145E1,1.770396E1,2.522961E1,1.2647587E1,2.8721123E0,7.873993E0,5.5514994E0,9.56115E0,3.7687225E0,5.958706E0,5.3046417E0,1.8730331E1,1.8371593E1,9.00682E0,1.1541382E1,8.090407E0,7.692293E0,1.027626E1,2.2178493E0,1.6203232E0,2.5792456E0,8.121353E0,4.851781E0,4.7783785E0,8.17997E0,1.2027668E1,4.027298E0,6.399982E0,7.0468464E0,6.1091714E0,7.521718E0,8.385173E0,3.0191689E0,6.9758773E0,6.878723E0,9.337624E0,1.1326269E1,6.111578E0,5.1916847E0,3.2346618E0,9.787661E0,1.0663379E1,3.446369E0,2.2529507E-1,9.255908E0,5.285744E0,2.119441E0,0E0,2.301624E0,1.7811775E0,2.46144E0,6.851454E-1,6.5293236E0,3.3983994E0,0E0,0E0,0E0,0E0,0E0,0E0,0E0,0E0,0E0,0E0,0E0,0E0,0E0,0E0,0E0,0E0,0E0,0E0,0E0,0E0,0E0,0E0,0E0,0E0,0E0,0E0,0E0,0E0,0E0,0E0,0E0,0E0,0E0,0E0,0E0,0E0,0E0,0E0,0E0,0E0,0E0,0E0,0E0,0E0,0E0,0E0,0E0,0E0,0E0,0E0,0E0,0E0,0E0,0E0,0E0,0E0,0E0,0E0,0E0,0E0,0E0,0E0],"parents":[2147483647,0,0,1,1,2,2,3,3,4,4,5,5,6,6,7,7,8,8,9,9,10,10,11,11,12,12,13,13,14,14,15,15,16,16,17,17,18,18,19,19,20,20,21,21,22,22,23,23,24,24,25,25,26,26,27,27,28,28,29,29,30,30,31,31,32,32,33,33,34,34,35,35,36,36,37,37,38,38,39,39,40,40,41,41,42,42,43,43,44,44,45,45,46,46,47,47,48,48,49,49,50,50,51,51,52,52,53,53,54,54,55,55,57,57,58,58,59,59,60,60,61,61,62,62],"right_children":[2,4,6,8,10,12,14,16,18,20,22,24,26,28,30,32,34,36,38,40,42,44,46,48,50,52,54,56,58,60,62,64,66,68,70,72,74,76,78,80,82,84,86,88,90,92,94,96,98,100,102,104,106,108,110,112,-1,114,116,118,120,122,124,-1,-1,-1,-1,-1,-1,-1,-1,-1,-1,-1,-1,-1,-1,-1,-1,-1,-1,-1,-1,-1,-1,-1,-1,-1,-1,-1,-1,-1,-1,-1,-1,-1,-1,-1,-1,-1,-1,-1,-1,-1,-1,-1,-1,-1,-1,-1,-1,-1,-1,-1,-1,-1,-1,-1,-1,-1,-1,-1,-1,-1,-1],"split_conditions":[5E0,3E0,4.82E0,9.287015E-1,0E0,1.47E0,-5E1,0E0,9.494331E-1,9.314785E-1,1.692E2,6E0,2E1,5.86E0,5E-1,-2.5E1,7.82625E-1,8.033E2,8.86E0,2.15E1,9.459462E-1,8.664281E-1,5E1,2.97E1,9.035998E-1,4.78E0,7.518822E-1,9.141852E-1,4.6E0,7.1313983E-1,1.569E2,8.405289E-1,9.179462E-1,7.6985484E-1,1.053E1,5E1,9.453098E-1,9.758693E-1,-5E1,6.5E1,3.31E1,5.65E0,4.39E1,1.03E0,4E0,3.394E2,6.85E0,9.439178E-1,6.206936E-1,2.17322E-1,2E1,2.2E0,8.2497853E-1,3E2,9.655778E-1,7.313651E-1,-2.6994616E-1,3E0,4.5485678E-1,6.4525574E-1,5.29E0,5E1,7.544337E-1,-1.5717259E-1,6.905203E-2,1.3935983E-1,-8.848024E-2,-2.3800539E-2,9.011784E-2,-7.5463876E-2,2.045722E-3,-1.4863506E-1,5.5187177E-2,2.1791561E-1,-2.6329705E-1,-5.8333356E-2,-1.4935814E-1,-1.4167042E-1,2.920617E-2,1.6995862E-1,-2.2102062E-1,-5.5979773E-2,5.864097E-2,-2.2420323E-1,-9.742455E-2,-6.0744934E-2,7.82775E-2,3.802674E-1,2.6295087E-3,-5.1150035E-2,-1.9674493E-2,-1.2011987E-2,6.214014E-2,1.1561217E-1,3.0190123E-2,1.07522264E-1,2.4746269E-1,3.9987653E-2,-7.343754E-2,-2.6116751E-2,3.8822718E-2,-1.9075036E-1,1.2387873E-3,6.0569566E-2,-2.5567131E-2,-9.326487E-2,-1.9020033E-1,9.5807865E-2,-9.314875E-2,-9.5956065E-3,-2.418881E-1,-1.0000984E-1,1.9467543E-1,2.4637014E-1,-7.08587E-2,2.606523E-1,1.5758312E-1,1.7736419E-1,-8.743505E-2,5.567939E-2,3.4939528E-1,3.692807E-2,8.0724835E-2,1.2158242E-1,3.250384E-1],"split_indices":[0,0,2,4,3,2,3,3,4,4,1,0,3,2,1,3,4,1,2,1,4,4,3,1,4,2,4,4,1,4,1,4,4,4,2,2,4,4,3,2,1,2,1,2,0,1,2,4,4,4,3,1,4,3,4,4,0,1,4,4,2,3,4,0,0,0,0,0,0,0,0,0,0,0,0,0,0,0,0,0,0,0,0,0,0,0,0,0,0,0,0,0,0,0,0,0,0,0,0,0,0,0,0,0,0,0,0,0,0,0,0,0,0,0,0,0,0,0,0,0,0,0,0,0,0],"split_type":[0,0,0,0,0,0,0,0,0,0,0,0,0,0,0,0,0,0,0,0,0,0,0,0,0,0,0,0,0,0,0,0,0,0,0,0,0,0,0,0,0,0,0,0,0,0,0,0,0,0,0,0,0,0,0,0,0,0,0,0,0,0,0,0,0,0,0,0,0,0,0,0,0,0,0,0,0,0,0,0,0,0,0,0,0,0,0,0,0,0,0,0,0,0,0,0,0,0,0,0,0,0,0,0,0,0,0,0,0,0,0,0,0,0,0,0,0,0,0,0,0,0,0,0,0],"sum_hessian":[1.4429083E4,1.0067893E4,4.36119E3,2.327141E3,7.7407515E3,2.6385818E3,1.7226083E3,1.6017974E3,7.2534393E2,9.278076E2,6.812944E3,1.5589496E3,1.0796323E3,9.9458E1,1.6231503E3,1.0701527E2,1.4947821E3,2.5422357E2,4.7112033E2,6.86271E2,2.4153664E2,5.4282036E3,1.3847401E3,4.6884622E2,1.0901033E3,6.726112E2,4.0702112E2,8.277952E0,9.118005E1,2.9123007E1,1.5940272E3,3.246421E1,7.455105E1,4.2022647E2,1.0745555E3,2.4530357E2,8.920008E0,3.6045544E2,1.1066487E2,5.916922E1,6.271018E2,8.5647514E1,1.5588913E2,1.944692E3,3.4835117E3,1.0601086E3,3.246314E2,3.665636E2,1.02282616E2,9.7625635E2,1.1384695E2,5.277125E2,1.4489867E2,2.2697046E2,1.8005067E2,7.0745583E0,1.2033933E0,7.3248987E0,8.385515E1,1.86123E1,1.0510706E1,1.5579302E3,3.609709E1,1.4798503E1,1.7665709E1,6.5782715E1,8.768339E0,3.5369324E2,6.653323E1,8.457314E2,2.2882425E2,2.367294E2,8.574161E0,6.0513296E0,2.8686783E0,2.4930046E2,1.11155E2,2.2903673E1,8.77612E1,5.521185E1,3.957368E0,6.3151608E1,5.639502E2,2.4398876E1,6.124864E1,4.4905704E1,1.1098342E2,3.350903E0,1.9413412E3,1.4647333E3,2.0187786E3,8.2179395E2,2.3831476E2,1.1895218E2,2.0567923E2,3.4109534E2,2.5468267E1,7.008471E1,3.219791E1,3.015182E2,6.747382E2,3.8880867E1,7.496608E1,4.4811188E1,4.8290137E2,1.426962E2,2.2024603E0,2.0140308E2,2.5567379E1,1.7175089E2,8.299787E0,3.0867288E0,3.9878297E0,2.1074982E0,5.2174006E0,2.6058992E1,5.779616E1,1.5344077E1,3.2682235E0,1.2225506E0,9.288156E0,1.1374567E3,4.2047354E2,2.5022158E1,1.1074935E1],"tree_param":{"num_deleted":"0","num_feature":"5","num_nodes":"125","size_leaf_vector":"1"}},{"base_weights":[-4.5343726E-3,-7.6061256E-2,4.4085283E-2,-2.3772815E-1,-5.7103716E-2,3.1822234E-1,3.6768254E-2,-1.1837594E-1,-3.8879436E-1,1.7851757E-1,-6.935072E-2,2.3446083E-1,6.3662326E-1,2.1645423E-2,1.4510019E-1,-1.5723649E-1,3.4796858E-1,-4.806622E-1,6.160535E-2,4.7704035E-1,1.22030176E-1,-1.6794764E-1,-3.4034595E-2,3.1031477E-1,2.111111E-1,5.535621E-2,6.8499666E-1,-1.377712E-2,7.708026E-2,1.3004725E-1,3.89486E-1,-4.724235E-3,-3.310703E-1,-3.5465202E-1,2.0591364E0,-3.1309214E-1,-6.719883E-1,5.1924115E-1,-4.533154E-2,6.1807656E-1,-8.308191E-1,-5.66873E-2,2.1665128E-1,-2.6775265E-1,-6.1031528E-2,-6.5011926E-2,5.5562E-2,1.2942503E-1,4.0139124E-1,5.150828E-1,-2.0689096E-1,8.573856E-1,4.8800316E-1,6.3797615E-2,-4.36424E-2,9.019989E-2,-1.7196643E-1,1.6088258E-1,-2.0266531E-2,5.541897E-1,1.3587682E-1,-2.0215573E-2,1.9255243E-1,-1.3594948E-1,-1.634658E-2,1.0670758E-1,-2.1717142E-1,7.616292E-1,-1.1931919E-1,-2.0672426E-1,-4.4251014E-2,-5.7824496E-2,-2.4966039E-1,1.861025E-2,-1.509689E-1,4.6685544E-1,1.495182E-1,-3.6042696E-1,3.993246E-2,5.08564E-4,-2.1466629E-1,-1.28907785E-2,1.2570946E-1,-1.790386E-1,-6.703043E-2,8.236196E-4,-6.052497E-2,-2.408983E-2,6.4908504E-2,7.0578195E-2,-3.2370545E-3,5.6798246E-2,-2.4461088E-1,1.6050504E-1,-8.63321E-2,1.8996705E-1,4.315712E-2,1.465415E-1,2.8641358E-1,-4.840112E-2,2.0407508E-1,5.415006E-2,-2.978739E-3,-1.6473664E-2,6.8955384E-2,5.8676187E-2,1.7809814E-2,-7.831226E-2,3.8566105E-2,4.3009926E-2,1.5478423E-1,-3.954582E-2,7.028594E-2,1.8919572E-1,-3.2731622E-2,8.747826E-2,-1.6188544E-1],"categories":[],"categories_nodes":[],"categories_segments":[],"categories_sizes":[],"default_left":[0,0,0,0,0,0,1,0,0,0,0,0,0,1,0,0,0,0,0,0,0,0,0,0,0,0,0,0,1,0,0,0,0,0,0,0,0,0,0,0,0,0,0,0,0,1,1,0,0,0,0,0,0,0,0,0,0,0,0,0,0,0,0,0,0,0,0,0,0,0,0,0,0,0,0,0,0,0,0,0,0,0,0,0,0,0,0,0,0,0,0,0,0,0,0,0,0,0,0,0,0,0,0,0,0,0,0,0,0,0,0,0,0,0,0,0,0],"id":7,"left_children":[1,3,5,7,9,11,13,15,17,19,21,23,25,27,29,31,33,35,37,39,41,43,45,-1,47,49,51,53,55,57,59,61,63,65,67,69,71,-1,73,75,77,79,81,83,85,87,89,91,93,95,-1,97,99,101,103,105,107,109,111,113,115,-1,-1,-1,-1,-1,-1,-1,-1,-1,-1,-1,-1,-1,-1,-1,-1,-1,-1,-1,-1,-1,-1,-1,-1,-1,-1,-1,-1,-1,-1,-1,-1,-1,-1,-1,-1,-1,-1,-1,-1,-1,-1,-1,-1,-1,-1,-1,-1,-1,-1,-1,-1,-1,-1,-1,-1],"loss_changes":[4.9611877E1,1.7679626E1,1.7024307E1,1.0872902E1,1.4926678E1,5.7358437E0,1.3551084E1,6.2117352E0,1.1071056E1,4.2527266E0,1.7104366E1,3.0743513E0,1.2379818E0,1.4259322E1,3.6769772E0,8.331141E0,3.252472E1,6.8991623E0,8.306241E0,7.953287E0,3.6702569E0,1.380901E1,1.0048434E1,0E0,2.6299686E0,1.9218128E0,1.001194E0,1.0268675E1,9.265667E0,4.434307E0,2.3595438E0,6.8672113E0,4.93495E0,5.3985085E0,1.0253681E1,7.3750134E0,7.722294E0,0E0,2.2088013E0,3.3764591E0,1.7148542E0,2.9121063E0,7.4601054E0,9.634056E0,5.626051E0,1.1587529E1,1.109554E1,7.070163E0,4.882682E0,5.8065236E-2,0E0,2.8666687E-1,2.8349037E0,1.060309E1,9.875606E0,8.7296295E0,3.8352027E0,4.8603745E0,4.677042E0,1.8446846E0,2.7108521E0,0E0,0E0,0E0,0E0,0E0,0E0,0E0,0E0,0E0,0E0,0E0,0E0,0E0,0E0,0E0,0E0,0E0,0E0,0E0,0E0,0E0,0E0,0E0,0E0,0E0,0E0,0E0,0E0,0E0,0E0,0E0,0E0,0E0,0E0,0E0,0E0,0E0,0E0,0E0,0E0,0E0,0E0,0E0,0E0,0E0,0E0,0E0,0E0,0E0,0E0,0E0,0E0,0E0,0E0,0E0,0E0],"parents":[2147483647,0,0,1,1,2,2,3,3,4,4,5,5,6,6,7,7,8,8,9,9,10,10,11,11,12,12,13,13,14,14,15,15,16,16,17,17,18,18,19,19,20,20,21,21,22,22,24,24,25,25,26,26,27,27,28,28,29,29,30,30,31,31,32,32,33,33,34,34,35,35,36,36,38,38,39,39,40,40,41,41,42,42,43,43,44,44,45,45,46,46,47,47,48,48,49,49,51,51,52,52,53,53,54,54,55,55,56,56,57,57,58,58,59,59,60,60],"right_children":[2,4,6,8,10,12,14,16,18,20,22,24,26,28,30,32,34,36,38,40,42,44,46,-1,48,50,52,54,56,58,60,62,64,66,68,70,72,-1,74,76,78,80,82,84,86,88,90,92,94,96,-1,98,100,102,104,106,108,110,112,114,116,-1,-1,-1,-1,-1,-1,-1,-1,-1,-1,-1,-1,-1,-1,-1,-1,-1,-1,-1,-1,-1,-1,-1,-1,-1,-1,-1,-1,-1,-1,-1,-1,-1,-1,-1,-1,-1,-1,-1,-1,-1,-1,-1,-1,-1,-1,-1,-1,-1,-1,-1,-1,-1,-1,-1,-1],"split_conditions":[4E0,2E0,-5E1,8.760302E-1,4.24E0,1.711E1,5E1,6.971E2,1.525E1,2.94E0,8.6E1,3E0,4.2E0,7.26E0,9.494331E-1,2.743E2,8.392109E-1,3.23E2,-2E1,2.073E2,3.62E0,7.52E0,9.21E0,3.1031477E-1,8.2174903E-1,3.8E0,3.24E1,2.05E0,2E1,9.035998E-1,9.665175E-1,2.598E2,1.127E1,7.5953615E-1,9.09E0,9.1181844E-1,9.1652E-1,5.1924115E-1,9.7817606E-1,2.35E1,4.134E2,2.743E2,9.07E1,3E0,9.301495E-1,5E1,-1.6666666E1,8.06374E-1,1.011E1,3E0,-2.0689096E-1,7.8E0,4.63E1,6E0,1.881E2,7.544337E-1,9.322851E-1,1.032E2,7.47E0,1.127E1,2E2,-2.0215573E-2,1.9255243E-1,-1.3594948E-1,-1.634658E-2,1.0670758E-1,-2.1717142E-1,7.616292E-1,-1.1931919E-1,-2.0672426E-1,-4.4251014E-2,-5.7824496E-2,-2.4966039E-1,1.861025E-2,-1.509689E-1,4.6685544E-1,1.495182E-1,-3.6042696E-1,3.993246E-2,5.08564E-4,-2.1466629E-1,-1.28907785E-2,1.2570946E-1,-1.790386E-1,-6.703043E-2,8.236196E-4,-6.052497E-2,-2.408983E-2,6.4908504E-2,7.0578195E-2,-3.2370545E-3,5.6798246E-2,-2.4461088E-1,1.6050504E-1,-8.63321E-2,1.8996705E-1,4.315712E-2,1.465415E-1,2.8641358E-1,-4.840112E-2,2.0407508E-1,5.415006E-2,-2.978739E-3,-1.6473664E-2,6.8955384E-2,5.8676187E-2,1.7809814E-2,-7.831226E-2,3.8566105E-2,4.3009926E-2,1.5478423E-1,-3.954582E-2,7.028594E-2,1.8919572E-1,-3.2731622E-2,8.747826E-2,-1.6188544E-1],"split_indices":[0,0,3,4,2,2,3,1,2,2,1,1,1,2,4,1,4,1,3,1,2,2,2,0,4,1,1,2,3,4,4,1,2,4,2,4,4,0,4,1,1,1,1,0,4,3,3,4,2,1,0,1,1,0,1,4,4,1,2,2,3,0,0,0,0,0,0,0,0,0,0,0,0,0,0,0,0,0,0,0,0,0,0,0,0,0,0,0,0,0,0,0,0,0,0,0,0,0,0,0,0,0,0,0,0,0,0,0,0,0,0,0,0,0,0,0,0],"split_type":[0,0,0,0,0,0,0,0,0,0,0,0,0,0,0,0,0,0,0,0,0,0,0,0,0,0,0,0,0,0,0,0,0,0,0,0,0,0,0,0,0,0,0,0,0,0,0,0,0,0,0,0,0,0,0,0,0,0,0,0,0,0,0,0,0,0,0,0,0,0,0,0,0,0,0,0,0,0,0,0,0,0,0,0,0,0,0,0,0,0,0,0,0,0,0,0,0,0,0,0,0,0,0,0,0,0,0,0,0,0,0,0,0,0,0,0,0],"sum_hessian":[1.4264109E4,5.7720234E3,8.492086E3,6.0459485E2,5.1674287E3,2.1966606E2,8.27242E3,3.3874652E2,2.6584833E2,2.5464833E2,4.9127803E3,1.7528922E2,4.4376846E1,7.2601265E3,1.0122934E3,3.1330188E2,2.5444645E1,2.2075404E2,4.50943E1,3.933371E1,2.1531462E2,1.2946292E3,3.6181511E3,3.7435064E0,1.715457E2,3.574088E0,4.0802757E1,4.4300815E3,2.8300452E3,9.550022E2,5.7291203E1,1.6743275E2,1.4586913E2,1.8600046E1,6.8445997E0,1.1908857E2,1.0166547E2,1.8007509E0,4.329355E1,3.598102E1,3.3526883E0,7.467383E1,1.406408E2,6.6880383E2,6.258253E2,2.6887954E3,9.293559E2,1.2119684E2,5.034886E1,2.40104E0,1.1730479E0,1.997249E1,2.0830267E1,1.2311213E3,3.1989602E3,2.6890269E3,1.410185E2,7.923827E2,1.6261949E2,3.4015198E1,2.3276005E1,1.5345651E2,1.3976243E1,1.00753784E2,4.5115337E1,6.374305E0,1.2225741E1,5.6987586E0,1.1458408E0,3.5445045E1,8.3643524E1,2.6023945E1,7.5641525E1,3.5770725E1,7.5228214E0,2.7130132E0,3.326801E1,2.2436726E0,1.1090155E0,6.951179E1,5.1620445E0,6.1952984E1,7.8687805E1,7.790727E1,5.9089655E2,4.3132086E2,1.9450443E2,2.5509143E3,1.3788089E2,2.4993164E2,6.7942426E2,1.1472273E2,6.4741106E0,4.2359287E1,7.9895754E0,1.2860099E0,1.1150302E0,5.425631E0,1.454686E1,4.7950673E0,1.6035198E1,4.7608105E2,7.550403E2,3.0731255E3,1.25834526E2,6.0745514E2,2.0815715E3,1.0887825E2,3.2140247E1,7.5646814E2,3.5914543E1,1.1340439E2,4.9215103E1,3.0543451E1,3.471746E0,1.9377388E1,3.8986151E0],"tree_param":{"num_deleted":"0","num_feature":"5","num_nodes":"117","size_leaf_vector":"1"}},{"base_weights":[-3.5111813E-3,-3.3401534E-2,6.528281E-2,7.857737E-2,-4.7292948E-2,2.5415765E-2,1.2704422E-1,1.22440144E-1,-4.5667052E-2,-1.2144925E-1,-2.4791522E-2,-3.469383E-3,9.369529E-2,2.6820424E-1,9.598332E-2,3.9619657E-1,1.17658354E-1,-2.9899454E-1,7.21966E-2,1.5042657E-3,-1.6253698E-1,-2.9954584E-2,2.2165047E-1,-6.337528E-5,-7.744073E-1,1.03940986E-1,-5.527353E-1,2.3972133E-1,8.395626E-1,5.2032393E-1,8.737717E-2,1.949919E-1,6.6119425E-2,-3.2704112E-1,2.566346E-1,8.262901E-4,3.5991576E-1,1.5010609E-1,-9.002966E-2,-1.7895369E-1,4.3032715E-1,7.8877E-2,-4.177642E-2,6.004314E-2,6.988847E-1,2.7661922E-3,-5.2270544E-1,-1.0593877E0,1.2142272E-1,1.1328032E-1,-4.6471742E-1,-3.3638054E-1,1.9684085E-1,5.2057433E-1,1.814049E-1,4.231745E-2,9.4891894E-1,2.9447663E-1,9.263331E-1,1.007543E-1,-1.7283405E-1,8.2731485E-2,1.9356881E-5,-3.2562654E-2,4.631193E-2,-1.0563577E-1,2.1525142E-1,9.740249E-2,-2.8778724E-2,1.9870113E-1,-4.9937103E-2,-5.611321E-2,8.127481E-2,-3.277236E-2,1.5779087E-1,-9.7357646E-2,-4.0534493E-2,1.9986556E-1,9.980007E-3,1.9250972E-2,2.5340745E-1,-1.4073369E-2,8.98302E-2,4.3440685E-2,-8.979553E-2,2.5373343E-2,2.5837323E-1,-2.2934163E-3,6.0659844E-2,-3.4364063E-2,-2.622956E-1,-8.8650644E-2,-5.6925935E-1,3.207136E-2,2.7211678E-1,1.5715638E-1,-2.3429477E-1,2.4982218E-1,-1.5866865E-1,2.8536397E-1,1.3041413E-1,-3.3162106E-2,6.962214E-2,3.4300584E-1,4.068747E-2,-2.3122402E-1,1.3492285E-1,3.1779373E-1,7.765168E-2,1.6982576E-2,5.5422403E-2,-8.965185E-2,8.140551E-2],"categories":[],"categories_nodes":[],"categories_segments":[],"categories_sizes":[],"default_left":[0,0,1,0,0,0,0,0,0,0,0,0,1,0,0,0,0,0,0,0,1,0,0,0,0,0,0,0,0,0,0,0,0,0,0,0,0,0,0,0,0,0,0,0,0,0,0,0,0,1,0,0,0,0,0,0,0,0,1,0,0,0,0,0,0,0,0,0,0,0,0,0,0,0,0,0,0,0,0,0,0,0,0,0,0,0,0,0,0,0,0,0,0,0,0,0,0,0,0,0,0,0,0,0,0,0,0,0,0,0,0,0,0],"id":8,"left_children":[1,3,5,7,9,11,13,15,17,19,21,23,25,27,29,-1,31,33,35,37,39,41,43,45,47,49,51,53,55,57,59,61,63,65,-1,67,69,71,73,75,77,79,81,83,85,87,89,91,-1,93,95,-1,97,99,101,-1,103,105,107,109,111,-1,-1,-1,-1,-1,-1,-1,-1,-1,-1,-1,-1,-1,-1,-1,-1,-1,-1,-1,-1,-1,-1,-1,-1,-1,-1,-1,-1,-1,-1,-1,-1,-1,-1,-1,-1,-1,-1,-1,-1,-1,-1,-1,-1,-1,-1,-1,-1,-1,-1,-1,-1],"loss_changes":[2.9073954E1,1.5335897E1,1.0541567E1,5.9357653E0,1.4629644E1,5.1358232E0,7.339157E0,4.4541483E0,8.520807E0,1.0312111E1,8.5687275E0,4.807164E0,5.184497E0,4.719843E0,4.9881687E0,0E0,3.1852646E0,3.2125826E0,4.0054626E0,6.9812264E0,1.496772E1,8.484372E0,1.06169405E1,2.6984186E0,3.134728E0,4.104192E0,5.4352965E0,4.6459846E0,9.324293E-1,2.2210803E0,4.724078E0,5.044873E0,7.462311E0,2.5880833E0,0E0,4.960135E0,6.281789E0,8.019021E0,3.8162577E0,9.461178E0,3.8664522E0,7.22426E0,1.0432917E1,3.221344E0,3.4047737E0,3.7697263E0,1.3099487E0,3.7684007E0,0E0,3.705593E0,4.3243203E0,0E0,3.2686896E0,1.4067631E0,3.5936494E0,0E0,1.7259016E0,3.479504E0,5.473194E-1,4.7600718E0,3.8020587E0,0E0,0E0,0E0,0E0,0E0,0E0,0E0,0E0,0E0,0E0,0E0,0E0,0E0,0E0,0E0,0E0,0E0,0E0,0E0,0E0,0E0,0E0,0E0,0E0,0E0,0E0,0E0,0E0,0E0,0E0,0E0,0E0,0E0,0E0,0E0,0E0,0E0,0E0,0E0,0E0,0E0,0E0,0E0,0E0,0E0,0E0,0E0,0E0,0E0,0E0,0E0,0E0],"parents":[2147483647,0,0,1,1,2,2,3,3,4,4,5,5,6,6,7,7,8,8,9,9,10,10,11,11,12,12,13,13,14,14,16,16,17,17,18,18,19,19,20,20,21,21,22,22,23,23,24,24,25,25,26,26,27,27,28,28,29,29,30,30,31,31,32,32,33,33,35,35,36,36,37,37,38,38,39,39,40,40,41,41,42,42,43,43,44,44,45,45,46,46,47,47,49,49,50,50,52,52,53,53,54,54,56,56,57,57,58,58,59,59,60,60],"right_children":[2,4,6,8,10,12,14,16,18,20,22,24,26,28,30,-1,32,34,36,38,40,42,44,46,48,50,52,54,56,58,60,62,64,66,-1,68,70,72,74,76,78,80,82,84,86,88,90,92,-1,94,96,-1,98,100,102,-1,104,106,108,110,112,-1,-1,-1,-1,-1,-1,-1,-1,-1,-1,-1,-1,-1,-1,-1,-1,-1,-1,-1,-1,-1,-1,-1,-1,-1,-1,-1,-1,-1,-1,-1,-1,-1,-1,-1,-1,-1,-1,-1,-1,-1,-1,-1,-1,-1,-1,-1,-1,-1,-1,-1,-1],"split_conditions":[5E0,0E0,4.82E0,9.314785E-1,3E0,1E2,-2.5E1,5.736359E-1,9.459462E-1,7.9966867E-1,4.268E2,6.6666664E1,4.59E0,1.214E2,5E-1,3.9619657E-1,7.18E1,6.293E2,1.053E1,7.36E0,5E1,7.619389E-1,9.390283E-1,9.85405E-1,9.329375E-1,9.665175E-1,1.84E1,3.4E0,3.8949776E-1,7.491331E-1,1E2,8.927364E-1,1.153E2,1E2,2.566346E-1,5.18E0,2.203E1,1.229E2,7.692E1,2E0,8.42E0,3.572E2,1E2,9.185942E-1,6.3E0,9.487081E-1,4.6E0,1.9E0,1.2142272E-1,4.55E0,1.5E2,-3.3638054E-1,3.31E1,9E-1,6E0,4.231745E-2,2.426E2,5.57E0,2.5E1,3.3333332E1,7.491331E-1,8.2731485E-2,1.9356881E-5,-3.2562654E-2,4.631193E-2,-1.0563577E-1,2.1525142E-1,9.740249E-2,-2.8778724E-2,1.9870113E-1,-4.9937103E-2,-5.611321E-2,8.127481E-2,-3.277236E-2,1.5779087E-1,-9.7357646E-2,-4.0534493E-2,1.9986556E-1,9.980007E-3,1.9250972E-2,2.5340745E-1,-1.4073369E-2,8.98302E-2,4.3440685E-2,-8.979553E-2,2.5373343E-2,2.5837323E-1,-2.2934163E-3,6.0659844E-2,-3.4364063E-2,-2.622956E-1,-8.8650644E-2,-5.6925935E-1,3.207136E-2,2.7211678E-1,1.5715638E-1,-2.3429477E-1,2.4982218E-1,-1.5866865E-1,2.8536397E-1,1.3041413E-1,-3.3162106E-2,6.962214E-2,3.4300584E-1,4.068747E-2,-2.3122402E-1,1.3492285E-1,3.1779373E-1,7.765168E-2,1.6982576E-2,5.5422403E-2,-8.965185E-2,8.140551E-2],"split_indices":[0,3,2,4,0,3,3,4,4,4,1,3,2,1,1,0,1,1,2,2,3,4,4,4,4,4,1,1,4,4,2,4,1,2,0,2,2,1,2,0,2,1,2,4,2,4,1,1,0,2,3,0,1,1,2,0,1,2,3,3,4,0,0,0,0,0,0,0,0,0,0,0,0,0,0,0,0,0,0,0,0,0,0,0,0,0,0,0,0,0,0,0,0,0,0,0,0,0,0,0,0,0,0,0,0,0,0,0,0,0,0,0,0],"split_type":[0,0,0,0,0,0,0,0,0,0,0,0,0,0,0,0,0,0,0,0,0,0,0,0,0,0,0,0,0,0,0,0,0,0,0,0,0,0,0,0,0,0,0,0,0,0,0,0,0,0,0,0,0,0,0,0,0,0,0,0,0,0,0,0,0,0,0,0,0,0,0,0,0,0,0,0,0,0,0,0,0,0,0,0,0,0,0,0,0,0,0,0,0,0,0,0,0,0,0,0,0,0,0,0,0,0,0,0,0,0,0,0,0],"sum_hessian":[1.4137063E4,9.855468E3,4.281595E3,1.0871641E3,8.768304E3,2.602859E3,1.6787363E3,8.035104E2,2.836537E2,2.0401927E3,6.7281113E3,1.8297472E3,7.731118E2,3.0139142E2,1.377345E3,2.100043E0,8.0141034E2,8.958007E1,1.9407362E2,5.1125238E2,1.5289403E3,6.590907E3,1.3720378E2,1.8226946E3,7.052592E0,7.6187555E2,1.1236248E1,2.8843228E2,1.2959141E1,2.6197044E1,1.351148E3,3.193884E2,4.8202194E2,8.8155106E1,1.4249684E0,1.5630434E2,3.7769276E1,1.9463309E2,3.166193E2,1.4884233E3,4.051703E1,6.4523303E2,5.9456743E3,1.0333645E2,3.386733E1,1.813869E3,8.825521E0,5.761663E0,1.2909291E0,7.5035297E2,1.15225935E1,6.107788E0,5.12846E0,4.822982E1,2.4020245E2,2.0641913E0,1.0894949E1,1.794193E1,8.255112E0,1.2856663E3,6.548168E1,2.2551723E2,9.387118E1,1.6172478E2,3.2029715E2,8.67356E1,1.4195038E0,3.5414223E1,1.2089012E2,2.3823475E1,1.3945803E1,5.119961E1,1.4343347E2,3.0784113E2,8.778168E0,3.4301096E2,1.1454124E3,2.4991716E1,1.5525312E1,6.341385E2,1.1094534E1,5.8583755E3,8.729903E1,8.409811E1,1.9238346E1,7.3977914E0,2.6469538E1,1.7247922E3,8.907677E1,4.697898E0,4.127624E0,3.721996E0,2.0396667E0,7.4549963E2,4.853356E0,2.6337423E0,8.888851E0,2.6548252E0,2.473635E0,6.342094E0,4.1887726E1,3.534855E1,2.048539E2,8.465321E0,2.4296286E0,1.7782171E0,1.6163715E1,6.3942423E0,1.8608696E0,8.438115E2,4.418547E2,5.126592E1,1.4215761E1],"tree_param":{"num_deleted":"0","num_feature":"5","num_nodes":"113","size_leaf_vector":"1"}},{"base_weights":[-2.4457015E-3,5.0896518E-2,-2.3257323E-2,6.1109453E-2,-1.1944463E-1,-9.810658E-2,-8.072727E-3,5.3835925E-2,3.3739376E-1,-1.8960945E-1,2.9129326E-1,-3.1098443E-1,-7.066853E-2,-3.293879E-2,2.7369771E-2,3.4762675E-1,4.8133884E-2,-4.3155886E-2,5.4118335E-1,-2.8035465E-1,1.411226E-1,7.466619E-1,-1.7612039E-1,-3.392519E-1,1.0892464E0,-1.9316337E-1,-2.9498568E-2,3.3047795E-2,-4.9495466E-2,2.0713154E-2,4.5732102E-1,2.3731896E-1,3.0273876E-1,5.4692145E-2,-1.8590665E-1,-2.0318538E-1,3.7567982E-1,1.6827919E-1,7.339805E-1,-3.3570972E-1,1.7061087E-1,-1.4271209E-1,4.961151E-1,-6.438139E-2,1.0947737E0,-7.060682E-1,1.1554856E-1,-4.474767E-1,-1.0208689E-1,5.197842E-1,-7.200967E-2,-2.2716837E-1,4.6877638E-1,-5.9686814E-2,1.9349748E-1,-7.6196045E-3,1.7887157E-1,1.900697E-1,-5.5002443E-2,1.1873545E-1,8.293444E-3,8.6633277E-1,2.3602618E-1,2.7045285E-2,2.1597095E-1,1.325899E-2,1.0627455E-1,-1.2542396E-2,-1.7261337E-1,-3.0451326E-2,-2.9018563E-1,1.13814004E-1,-1.0858352E-1,2.6611277E-1,-1.8308317E-2,2.5231066E-1,-1.05417095E-1,-6.834249E-2,2.990933E-1,-1.2615594E-1,5.342071E-2,1.7474134E-1,-1.0346476E-1,1.4416404E-1,-1.7194684E-1,1.3690102E-1,4.3776524E-1,-2.8364724E-1,4.8836417E-2,-1.7531684E-1,1.10233E-1,-6.307432E-2,-1.9186349E-1,1.6205007E-1,-7.760797E-2,1.437313E-1,-7.530522E-2,1.7567115E-1,-7.1354665E-2,-3.8051203E-2,2.3284443E-2,1.24899976E-1,-2.9683031E-2,1.10439144E-1,-6.510591E-3,9.391184E-2,-2.0140935E-2,9.2739634E-2,-2.8146073E-1,-2.8783754E-2,-5.601599E-3,5.8852006E-2,2.703673E-3,6.2480853E-3,-2.484479E-2,5.5462587E-1,1.671225E-1,-9.614828E-2,1.23509996E-1],"categories":[],"categories_nodes":[],"categories_segments":[],"categories_sizes":[],"default_left":[0,0,0,0,0,0,0,0,0,0,0,1,0,0,0,0,0,0,0,0,0,0,0,0,0,0,0,0,0,0,0,0,0,0,0,0,0,0,0,0,0,0,0,0,0,0,0,0,0,0,0,0,0,0,0,0,0,0,0,0,0,0,0,0,0,0,0,0,0,0,0,0,0,0,0,0,0,0,0,0,0,0,0,0,0,0,0,0,0,0,0,0,0,0,0,0,0,0,0,0,0,0,0,0,0,0,0,0,0,0,0,0,0,0,0,0,0,0,0],"id":9,"left_children":[1,3,5,7,9,11,13,15,17,19,21,23,25,27,29,31,33,35,37,39,41,43,45,47,49,51,53,55,57,59,61,63,-1,65,67,69,-1,71,73,75,77,79,81,83,85,87,89,91,93,-1,-1,95,97,99,101,103,105,107,109,111,113,115,117,-1,-1,-1,-1,-1,-1,-1,-1,-1,-1,-1,-1,-1,-1,-1,-1,-1,-1,-1,-1,-1,-1,-1,-1,-1,-1,-1,-1,-1,-1,-1,-1,-1,-1,-1,-1,-1,-1,-1,-1,-1,-1,-1,-1,-1,-1,-1,-1,-1,-1,-1,-1,-1,-1,-1,-1],"loss_changes":[1.5586682E1,6.862508E0,1.1478138E1,7.4539127E0,6.488577E0,9.926783E0,7.401725E0,6.054345E0,7.4053116E0,5.779906E0,7.1477547E0,8.0552635E0,7.609896E0,5.3937964E0,9.901543E0,4.7835455E0,5.4686346E0,7.328307E0,4.3385887E0,3.8122654E0,4.287096E0,4.838542E0,2.721016E0,4.859247E0,3.9050908E0,8.652942E0,7.6280646E0,5.875759E0,5.2162704E0,4.15183E0,4.5699806E0,4.218168E0,0E0,1.0862808E1,5.4289856E0,2.3283215E0,0E0,2.6501203E0,4.9963455E0,2.7738705E0,5.85985E0,2.2163055E0,1.5673647E0,1.9433901E0,2.0963793E0,1.4441872E0,2.308157E0,5.830944E0,6.2927065E0,0E0,0E0,6.214514E0,1.6973128E0,9.20459E0,8.8477E0,4.111642E0,7.1521163E0,1.2231494E1,5.7370434E0,3.256977E0,3.4602175E0,4.4830437E0,3.6128092E0,0E0,0E0,0E0,0E0,0E0,0E0,0E0,0E0,0E0,0E0,0E0,0E0,0E0,0E0,0E0,0E0,0E0,0E0,0E0,0E0,0E0,0E0,0E0,0E0,0E0,0E0,0E0,0E0,0E0,0E0,0E0,0E0,0E0,0E0,0E0,0E0,0E0,0E0,0E0,0E0,0E0,0E0,0E0,0E0,0E0,0E0,0E0,0E0,0E0,0E0,0E0,0E0,0E0,0E0,0E0,0E0],"parents":[2147483647,0,0,1,1,2,2,3,3,4,4,5,5,6,6,7,7,8,8,9,9,10,10,11,11,12,12,13,13,14,14,15,15,16,16,17,17,18,18,19,19,20,20,21,21,22,22,23,23,24,24,25,25,26,26,27,27,28,28,29,29,30,30,31,31,33,33,34,34,35,35,37,37,38,38,39,39,40,40,41,41,42,42,43,43,44,44,45,45,46,46,47,47,48,48,51,51,52,52,53,53,54,54,55,55,56,56,57,57,58,58,59,59,60,60,61,61,62,62],"right_children":[2,4,6,8,10,12,14,16,18,20,22,24,26,28,30,32,34,36,38,40,42,44,46,48,50,52,54,56,58,60,62,64,-1,66,68,70,-1,72,74,76,78,80,82,84,86,88,90,92,94,-1,-1,96,98,100,102,104,106,108,110,112,114,116,118,-1,-1,-1,-1,-1,-1,-1,-1,-1,-1,-1,-1,-1,-1,-1,-1,-1,-1,-1,-1,-1,-1,-1,-1,-1,-1,-1,-1,-1,-1,-1,-1,-1,-1,-1,-1,-1,-1,-1,-1,-1,-1,-1,-1,-1,-1,-1,-1,-1,-1,-1,-1,-1,-1,-1,-1],"split_conditions":[7.846667E-1,3.031E2,3E0,2.466E2,7.7211267E-1,9.81E1,7.44E0,-8E1,7.043961E-1,4E0,7.785045E-1,3.3333332E1,2E0,1.2E1,4.764E2,4.471E1,2.073E2,1.855E1,7.07E0,5.798E2,6.5385526E-1,7.28E0,2E0,9.01E0,7.83E1,6.5E1,4.764E2,5.15E0,2.05E0,-2E1,5.456E2,6.4525574E-1,3.0273876E-1,1.76E2,1.106E1,6.946839E-1,3.7567982E-1,7.6985484E-1,1.481E1,4.13E0,2E0,5E0,1.379E1,3E0,4.134E2,1.667E1,3.312E2,6.17E0,8.2337755E-1,5.197842E-1,-7.200967E-2,1.199E2,9.7475415E-1,8.26E0,9.2655575E-1,-3.3333332E1,6.48E0,9.07E1,6.75E1,9.076902E-1,2.521E1,7.98E0,8.29E0,2.7045285E-2,2.1597095E-1,1.325899E-2,1.0627455E-1,-1.2542396E-2,-1.7261337E-1,-3.0451326E-2,-2.9018563E-1,1.13814004E-1,-1.0858352E-1,2.6611277E-1,-1.8308317E-2,2.5231066E-1,-1.05417095E-1,-6.834249E-2,2.990933E-1,-1.2615594E-1,5.342071E-2,1.7474134E-1,-1.0346476E-1,1.4416404E-1,-1.7194684E-1,1.3690102E-1,4.3776524E-1,-2.8364724E-1,4.8836417E-2,-1.7531684E-1,1.10233E-1,-6.307432E-2,-1.9186349E-1,1.6205007E-1,-7.760797E-2,1.437313E-1,-7.530522E-2,1.7567115E-1,-7.1354665E-2,-3.8051203E-2,2.3284443E-2,1.24899976E-1,-2.9683031E-2,1.10439144E-1,-6.510591E-3,9.391184E-2,-2.0140935E-2,9.2739634E-2,-2.8146073E-1,-2.8783754E-2,-5.601599E-3,5.8852006E-2,2.703673E-3,6.2480853E-3,-2.484479E-2,5.5462587E-1,1.671225E-1,-9.614828E-2,1.23509996E-1],"split_indices":[4,1,0,1,4,1,2,3,4,0,4,3,0,1,1,2,1,2,2,1,4,2,0,2,1,2,1,2,2,3,1,4,0,1,2,4,0,4,2,2,0,0,2,0,1,2,1,2,4,0,0,1,4,2,4,3,2,1,1,4,2,2,2,0,0,0,0,0,0,0,0,0,0,0,0,0,0,0,0,0,0,0,0,0,0,0,0,0,0,0,0,0,0,0,0,0,0,0,0,0,0,0,0,0,0,0,0,0,0,0,0,0,0,0,0,0,0,0,0],"split_type":[0,0,0,0,0,0,0,0,0,0,0,0,0,0,0,0,0,0,0,0,0,0,0,0,0,0,0,0,0,0,0,0,0,0,0,0,0,0,0,0,0,0,0,0,0,0,0,0,0,0,0,0,0,0,0,0,0,0,0,0,0,0,0,0,0,0,0,0,0,0,0,0,0,0,0,0,0,0,0,0,0,0,0,0,0,0,0,0,0,0,0,0,0,0,0,0,0,0,0,0,0,0,0,0,0,0,0,0,0,0,0,0,0,0,0,0,0,0,0],"sum_hessian":[1.4038243E4,3.9394927E3,1.0098751E4,3.7172627E3,2.2223007E2,1.7022766E3,8.396474E3,3.6230754E3,9.4187126E1,1.90266E2,3.196406E1,1.9317741E2,1.5090992E3,4.9345317E3,3.4619421E3,6.7838005E1,3.5552375E3,3.3122864E1,6.106426E1,1.4942075E2,4.0845264E1,1.5888027E1,1.6076035E1,1.900975E2,3.07992E0,3.7868597E2,1.1304132E3,9.8957745E2,3.9449543E3,3.4101929E3,5.174933E1,5.9307102E1,8.530905E0,3.459074E3,9.616355E1,3.0231392E1,2.8914733E0,2.1449642E1,3.9614616E1,1.3331248E2,1.6108261E1,2.302977E1,1.7815495E1,5.0161877E0,1.087184E1,5.2025237E0,1.087351E1,1.2992323E2,6.0174263E1,1.8709571E0,1.2089629E0,3.608075E2,1.78785E1,9.9627423E2,1.3413898E2,7.7452527E2,2.1505222E2,8.7893326E1,3.857061E3,3.8252917E2,3.0276636E3,1.714534E1,3.460399E1,4.635697E1,1.2950131E1,3.34309E3,1.15983864E2,7.100141E1,2.516214E1,2.7680687E1,2.550706E0,1.5545091E1,5.9045525E0,3.3121925E1,6.492692E0,1.0609138E0,1.3225157E2,1.1356997E1,4.7512636E0,1.217493E1,1.085484E1,1.6435276E1,1.380217E0,2.4488282E0,2.5673594E0,4.7692156E0,6.1026235E0,4.00947E0,1.1930536E0,2.528265E0,8.345245E0,5.9065006E1,7.085823E1,1.1316261E1,4.8858E1,1.1162038E1,3.4964545E2,1.5489622E1,2.3888779E0,6.691078E2,3.271664E2,7.588901E1,5.8249977E1,2.707086E1,7.474544E2,1.3898181E2,7.60704E1,8.016032E1,7.733009E0,1.8126332E3,2.0444279E3,2.2379585E2,1.5873332E2,2.6622073E3,3.6545636E2,2.9131377E0,1.4232203E1,8.1046715E0,2.649932E1],"tree_param":{"num_deleted":"0","num_feature":"5","num_nodes":"119","size_leaf_vector":"1"}},{"base_weights":[-1.8268471E-3,-1.078795E-2,9.326358E-2,4.2678915E-2,-3.4002524E-2,8.90873E-2,6.667511E-1,1.3509482E-1,2.1098038E-2,-8.7407105E-2,-2.2262227E-2,7.0505686E-2,1.9918175E-1,1.2698021E0,-4.1300657E-1,-5.469999E-1,1.4321592E-1,1.3729768E-2,3.1216785E-1,8.267801E-2,-1.0671317E-1,-2.5613774E-2,2.0440212E-1,9.187919E-2,-9.356558E-2,6.9624263E-1,1.281188E-1,4.805437E-1,6.199408E-2,-1.9798158E-1,2.5180293E-2,5.3624693E-2,-6.9443905E-1,1.13816E-1,2.8248855E-1,-3.2453033E-1,1.941831E-2,5.873363E-1,1.0593353E-1,1.4379825E-1,-1.9701174E-1,-2.2892992E-1,-6.8416715E-2,-2.30821E-2,-2.8765824E-1,-1.6556066E-1,5.119727E-1,3.2905616E-2,1.4390665E-1,-4.057496E-2,-7.535236E-1,5.1236176E-1,3.4934673E-1,4.7318894E-1,8.006142E-2,-2.647999E-1,1.4450149E-2,3.0736689E-2,1.3769057E-1,1.0602664E-1,-5.7938594E-2,-1.3862322E-2,-1.8574813E-1,-3.7422006E-3,1.835301E-2,1.369565E-1,3.715828E-1,-8.0400884E-2,9.929146E-2,7.488862E-2,-2.9765291E-2,-1.8039152E-1,1.8259456E-2,-1.1080544E-1,-1.3818244E-2,-1.13232866E-1,-1.7542787E-2,-1.1678895E-2,2.7446477E-3,-1.0100859E-1,2.598295E-1,-8.3037116E-2,3.381153E-1,2.263572E-1,6.536309E-2,1.2630744E-2,-2.470801E-1,1.2098848E-1,3.3367872E-2,-8.412511E-2,2.5496202E-2,-6.9634624E-2,-2.8826872E-1,1.9060007E-1,-2.0872419E-1,1.2821303E-2,3.0596942E-1,-5.7504453E-2,4.2671718E-2],"categories":[],"categories_nodes":[],"categories_segments":[],"categories_sizes":[],"default_left":[1,1,0,0,0,1,0,0,1,0,0,1,0,0,0,0,0,0,0,0,0,0,0,0,0,0,0,0,0,0,0,0,0,0,0,0,0,0,0,0,0,0,0,1,0,0,0,0,0,0,0,0,0,0,0,0,0,0,0,0,0,0,0,0,0,0,0,0,0,0,0,0,0,0,0,0,0,0,0,0,0,0,0,0,0,0,0,0,0,0,0,0,0,0,0,0,0,0,0],"id":10,"left_children":[1,3,5,7,9,11,13,15,17,19,21,23,25,27,29,31,33,35,37,39,41,43,45,47,49,51,53,-1,-1,-1,-1,-1,55,57,59,61,63,65,67,69,71,73,75,77,79,81,83,85,87,89,91,93,-1,95,97,-1,-1,-1,-1,-1,-1,-1,-1,-1,-1,-1,-1,-1,-1,-1,-1,-1,-1,-1,-1,-1,-1,-1,-1,-1,-1,-1,-1,-1,-1,-1,-1,-1,-1,-1,-1,-1,-1,-1,-1,-1,-1,-1,-1],"loss_changes":[1.1907329E1,1.5851977E1,2.8229303E0,7.7085686E0,5.5811796E0,2.4324656E0,6.089343E0,4.1319733E0,6.7208266E0,5.2773113E0,5.5518274E0,3.602202E0,5.9915347E0,1.691227E0,5.238048E-1,1.0676613E0,2.9322214E0,5.893112E0,4.3286405E0,2.8338606E0,6.7304497E0,4.767109E0,1.2203078E1,2.7786398E0,4.1172137E0,1.2379656E0,2.4801226E0,0E0,0E0,0E0,0E0,0E0,1.0955455E0,2.3034778E0,4.302766E0,4.12519E0,4.00898E0,2.2397823E0,3.9130025E0,3.503517E0,3.1491485E0,8.802553E0,3.353623E0,3.6412022E0,4.182258E0,7.371525E0,4.001232E0,3.3942132E0,4.0381756E0,3.3619733E0,7.2397804E-1,2.9802418E0,0E0,4.2766247E0,2.2995362E0,0E0,0E0,0E0,0E0,0E0,0E0,0E0,0E0,0E0,0E0,0E0,0E0,0E0,0E0,0E0,0E0,0E0,0E0,0E0,0E0,0E0,0E0,0E0,0E0,0E0,0E0,0E0,0E0,0E0,0E0,0E0,0E0,0E0,0E0,0E0,0E0,0E0,0E0,0E0,0E0,0E0,0E0,0E0,0E0],"parents":[2147483647,0,0,1,1,2,2,3,3,4,4,5,5,6,6,7,7,8,8,9,9,10,10,11,11,12,12,13,13,14,14,15,15,16,16,17,17,18,18,19,19,20,20,21,21,22,22,23,23,24,24,25,25,26,26,32,32,33,33,34,34,35,35,36,36,37,37,38,38,39,39,40,40,41,41,42,42,43,43,44,44,45,45,46,46,47,47,48,48,49,49,50,50,51,51,53,53,54,54],"right_children":[2,4,6,8,10,12,14,16,18,20,22,24,26,28,30,32,34,36,38,40,42,44,46,48,50,52,54,-1,-1,-1,-1,-1,56,58,60,62,64,66,68,70,72,74,76,78,80,82,84,86,88,90,92,94,-1,96,98,-1,-1,-1,-1,-1,-1,-1,-1,-1,-1,-1,-1,-1,-1,-1,-1,-1,-1,-1,-1,-1,-1,-1,-1,-1,-1,-1,-1,-1,-1,-1,-1,-1,-1,-1,-1,-1,-1,-1,-1,-1,-1,-1,-1],"split_conditions":[5E1,0E0,6.971E2,7.170269E-1,3E0,1.022E1,9.301495E-1,2E0,-1.6666666E1,5.18E0,9.838914E-1,8.12E0,1.09E1,8.51E0,9.5081645E-1,6.206936E-1,6.96E1,7.280773E-1,6.1E0,2.965E2,1.338E2,9.794728E-1,3.76E1,1.2E0,3.23E2,9.1341263E-1,5.881666E-1,4.805437E-1,6.199408E-2,-1.9798158E-1,2.5180293E-2,5.3624693E-2,7.043961E-1,7.090113E-1,2.903E2,5E0,7.67E0,5.62E0,1.6E1,9.377069E-1,3.67E2,8.26E0,5.41E0,7.98E0,2.598E2,1.296E1,7.05E0,9E-1,6.995564E-1,4.3E1,8.55E0,9.043713E-1,3.4934673E-1,4.5485678E-1,1.48E1,-2.647999E-1,1.4450149E-2,3.0736689E-2,1.3769057E-1,1.0602664E-1,-5.7938594E-2,-1.3862322E-2,-1.8574813E-1,-3.7422006E-3,1.835301E-2,1.369565E-1,3.715828E-1,-8.0400884E-2,9.929146E-2,7.488862E-2,-2.9765291E-2,-1.8039152E-1,1.8259456E-2,-1.1080544E-1,-1.3818244E-2,-1.13232866E-1,-1.7542787E-2,-1.1678895E-2,2.7446477E-3,-1.0100859E-1,2.598295E-1,-8.3037116E-2,3.381153E-1,2.263572E-1,6.536309E-2,1.2630744E-2,-2.470801E-1,1.2098848E-1,3.3367872E-2,-8.412511E-2,2.5496202E-2,-6.9634624E-2,-2.8826872E-1,1.9060007E-1,-2.0872419E-1,1.2821303E-2,3.0596942E-1,-5.7504453E-2,4.2671718E-2],"split_indices":[3,3,1,4,0,2,4,0,3,2,4,2,2,2,4,4,1,4,2,1,1,4,1,1,1,4,4,0,0,0,0,0,4,4,1,0,2,2,1,4,1,2,2,2,1,2,2,1,4,1,2,4,0,4,1,0,0,0,0,0,0,0,0,0,0,0,0,0,0,0,0,0,0,0,0,0,0,0,0,0,0,0,0,0,0,0,0,0,0,0,0,0,0,0,0,0,0,0,0],"split_type":[0,0,0,0,0,0,0,0,0,0,0,0,0,0,0,0,0,0,0,0,0,0,0,0,0,0,0,0,0,0,0,0,0,0,0,0,0,0,0,0,0,0,0,0,0,0,0,0,0,0,0,0,0,0,0,0,0,0,0,0,0,0,0,0,0,0,0,0,0,0,0,0,0,0,0,0,0,0,0,0,0,0,0,0,0,0,0,0,0,0,0,0,0,0,0,0,0,0,0],"sum_hessian":[1.3971669E4,1.2769214E4,1.2024547E3,3.865504E3,8.90371E3,1.1949084E3,7.546289E0,7.307878E2,3.1347163E3,1.6034496E3,7.3002607E3,1.0237599E3,1.7114857E2,4.729069E0,2.8172195E0,7.8177323E0,7.2297003E2,3.058343E3,7.6373085E1,1.6311699E2,1.4403326E3,7.194763E3,1.0549751E2,9.061554E2,1.1760451E2,2.0307444E1,1.5084113E2,3.2175953E0,1.5114739E0,1.6629102E0,1.1543093E0,1.2841794E0,6.533553E0,5.984555E2,1.2451449E2,4.9654724E1,3.0086885E3,3.1926798E1,4.444629E1,1.3426262E2,2.8854366E1,3.4245776E2,1.0978749E3,7.1269956E3,6.776751E1,4.8100864E1,5.739665E1,4.2549066E2,4.8066473E2,1.0984602E2,7.758488E0,1.6085041E1,4.222401E0,1.7357977E1,1.3348315E2,5.061912E0,1.4716408E0,5.806411E2,1.7814415E1,1.0857807E2,1.5936419E1,2.6128881E1,2.352584E1,1.7062603E3,1.3024282E3,2.8003069E1,3.9237285E0,1.6626984E1,2.7819307E1,9.351205E1,4.0750576E1,1.0718452E1,1.8135914E1,1.9313417E2,1.493236E2,3.3063644E1,1.0648113E3,4.7776675E3,2.3493281E3,6.5683975E1,2.083531E0,4.5013317E1,3.087546E0,3.05968E1,2.6799849E1,4.2191116E2,3.5794911E0,5.251405E1,4.2815067E2,3.7322113E1,7.252391E1,2.8106985E0,4.9477897E0,1.5029335E1,1.0557065E0,1.0314797E1,7.04318E0,2.4467382E1,1.0901577E2],"tree_param":{"num_deleted":"0","num_feature":"5","num_nodes":"99","size_leaf_vector":"1"}},{"base_weights":[-1.3241662E-3,1.1594295E-2,-4.447404E-2,9.517574E-3,2.6726034E-1,-1.0027647E-1,-1.1651027E-2,6.331336E-2,1.1875812E-3,-7.877398E-2,5.5965114E-1,-1.0932559E-1,6.467177E-1,-2.9589893E-2,1.1945493E-1,5.2416567E-2,3.7200037E-1,-1.441555E-2,4.0961772E-2,-2.382952E-1,3.3310792E-1,1.7748506E0,3.299977E-1,-2.6362717E-1,-8.274504E-2,1.1525711E0,9.2721514E-2,-1.5256947E-1,1.08931335E-2,2.7244383E-1,2.9804762E-3,2.146255E-1,3.4566045E-2,7.0975924E-1,-6.570142E-2,1.4610239E-2,-2.9935444E-2,3.882492E-2,5.113325E-1,2.570122E-1,-4.2329714E-1,-3.0421594E-1,9.716141E-1,6.308516E-1,1.3582423E-1,-2.2076888E-1,4.229235E-1,-4.0839794E-1,-8.9742176E-2,-1.4610785E-1,-2.8811118E-3,-1.0428697E-2,4.3418977E-1,3.1456488E-1,-3.5259655E-1,2.257582E-1,-1.9600801E-1,6.983854E-1,1.0323327E-3,1.9530404E-1,9.803119E-1,-7.634809E-2,4.915E-1,7.887344E-2,-9.453936E-2,-8.577167E-3,1.997542E-2,1.4206569E-1,4.856314E-1,-3.163846E-1,5.1509608E-2,-2.053331E-3,5.0284564E-2,-1.9843424E-2,1.3941417E-3,7.6575987E-3,3.1801898E-2,2.782764E-1,-1.7552947E-1,-8.210255E-2,3.3205557E-1,-2.0084952E-1,-3.1877182E-2,-7.37929E-3,-2.3828813E-1,4.2239952E-1,1.1718763E-1,-7.319567E-2,1.7267995E-1,2.63873E-1,-1.2971573E-1,3.916326E-3,-1.9772105E-1,-7.809208E-3,-6.818634E-2,-2.0108584E-2,3.3001795E-2,-1.6574079E-1,7.7629544E-2,1.4418355E-1,-7.7495396E-2,1.5212744E-1,-6.44468E-2,-8.0920085E-2,3.4377044E-1,4.634562E-2,-7.2201095E-3,7.2007194E-2,-6.942837E-2,3.2303786E-1,6.318539E-2,-1.5057662E-1,1.4171703E-3,3.570474E-1,1.00775085E-1],"categories":[],"categories_nodes":[],"categories_segments":[],"categories_sizes":[],"default_left":[0,0,0,0,0,0,0,0,0,0,0,0,1,0,0,0,0,0,0,0,0,0,0,0,0,0,0,0,0,0,0,0,0,0,0,0,1,0,0,0,0,0,0,0,0,0,0,0,0,0,0,0,0,0,0,0,0,0,0,0,0,1,0,0,0,0,0,0,0,0,0,0,0,0,0,0,0,0,0,0,0,0,0,0,0,0,0,0,0,0,0,0,0,0,0,0,0,0,0,0,0,0,0,0,0,0,0,0,0,0,0,0,0,0,0],"id":11,"left_children":[1,3,5,7,9,11,13,15,17,19,21,23,25,27,29,31,33,35,37,39,41,43,45,47,49,51,53,55,57,59,61,63,65,67,69,71,73,75,77,79,81,83,85,-1,-1,-1,87,89,91,93,95,-1,-1,-1,97,99,101,103,105,107,109,111,113,-1,-1,-1,-1,-1,-1,-1,-1,-1,-1,-1,-1,-1,-1,-1,-1,-1,-1,-1,-1,-1,-1,-1,-1,-1,-1,-1,-1,-1,-1,-1,-1,-1,-1,-1,-1,-1,-1,-1,-1,-1,-1,-1,-1,-1,-1,-1,-1,-1,-1,-1,-1],"loss_changes":[7.759565E0,5.6855083E0,5.8733306E0,4.762414E0,8.77382E0,8.099214E0,4.755735E0,4.7736974E0,5.7124667E0,2.7333233E0,1.2499863E1,4.7946997E0,3.9175014E0,8.854543E0,4.336297E0,3.9813097E0,7.2054057E0,2.9786553E0,2.586924E0,2.8301878E0,5.0541167E0,2.180706E0,4.339023E0,4.296031E0,5.076371E0,2.646473E0,3.7500062E0,7.2826433E0,9.074895E0,5.552691E0,5.431979E0,3.5712829E0,2.5138297E0,5.1202173E0,5.34749E0,7.5646143E0,5.395074E0,2.305051E0,5.8582134E0,4.225922E0,1.6461186E0,8.8677853E-1,9.914441E-1,0E0,0E0,0E0,4.013593E0,3.2733116E0,4.6599083E0,5.446948E0,3.2287078E0,0E0,0E0,0E0,8.963952E-1,5.777859E0,5.342478E0,8.509938E0,5.09092E0,1.8895926E0,5.2237606E-1,4.163961E0,1.7286038E0,0E0,0E0,0E0,0E0,0E0,0E0,0E0,0E0,0E0,0E0,0E0,0E0,0E0,0E0,0E0,0E0,0E0,0E0,0E0,0E0,0E0,0E0,0E0,0E0,0E0,0E0,0E0,0E0,0E0,0E0,0E0,0E0,0E0,0E0,0E0,0E0,0E0,0E0,0E0,0E0,0E0,0E0,0E0,0E0,0E0,0E0,0E0,0E0,0E0,0E0,0E0,0E0],"parents":[2147483647,0,0,1,1,2,2,3,3,4,4,5,5,6,6,7,7,8,8,9,9,10,10,11,11,12,12,13,13,14,14,15,15,16,16,17,17,18,18,19,19,20,20,21,21,22,22,23,23,24,24,25,25,26,26,27,27,28,28,29,29,30,30,31,31,32,32,33,33,34,34,35,35,36,36,37,37,38,38,39,39,40,40,41,41,42,42,46,46,47,47,48,48,49,49,50,50,54,54,55,55,56,56,57,57,58,58,59,59,60,60,61,61,62,62],"right_children":[2,4,6,8,10,12,14,16,18,20,22,24,26,28,30,32,34,36,38,40,42,44,46,48,50,52,54,56,58,60,62,64,66,68,70,72,74,76,78,80,82,84,86,-1,-1,-1,88,90,92,94,96,-1,-1,-1,98,100,102,104,106,108,110,112,114,-1,-1,-1,-1,-1,-1,-1,-1,-1,-1,-1,-1,-1,-1,-1,-1,-1,-1,-1,-1,-1,-1,-1,-1,-1,-1,-1,-1,-1,-1,-1,-1,-1,-1,-1,-1,-1,-1,-1,-1,-1,-1,-1,-1,-1,-1,-1,-1,-1,-1,-1,-1],"split_conditions":[9.307858E-1,6.971E2,9.4800854E-1,0E0,8.605875E-1,1E2,5E0,9.2579913E-1,5E1,9.848E2,8.74045E-1,3E0,-2.5E1,4.55E1,9.597498E-1,3.4E0,9.81E1,5.72E0,9.301495E-1,7.5703996E-1,7.1313983E-1,8.38E0,8.863009E-1,2.311E2,7.93E1,3.52E1,9.383606E-1,9.515287E-1,4.72E1,3.11E1,9.64E0,8.945438E-1,2.76E1,6.85E1,1.153E2,5.36E0,8.19E0,1.531E2,1.022E1,7.313651E-1,8.3087206E-1,4.59E0,8.013489E-1,6.308516E-1,1.3582423E-1,-2.2076888E-1,6.3E0,3.54E0,9.459462E-1,2.48E1,4E0,-1.0428697E-2,4.3418977E-1,3.1456488E-1,9.459462E-1,3.24E1,2.27E0,5.8E0,5.09E0,1.196E1,9.5731443E-1,-6.6666664E1,9.622369E-1,7.887344E-2,-9.453936E-2,-8.577167E-3,1.997542E-2,1.4206569E-1,4.856314E-1,-3.163846E-1,5.1509608E-2,-2.053331E-3,5.0284564E-2,-1.9843424E-2,1.3941417E-3,7.6575987E-3,3.1801898E-2,2.782764E-1,-1.7552947E-1,-8.210255E-2,3.3205557E-1,-2.0084952E-1,-3.1877182E-2,-7.37929E-3,-2.3828813E-1,4.2239952E-1,1.1718763E-1,-7.319567E-2,1.7267995E-1,2.63873E-1,-1.2971573E-1,3.916326E-3,-1.9772105E-1,-7.809208E-3,-6.818634E-2,-2.0108584E-2,3.3001795E-2,-1.6574079E-1,7.7629544E-2,1.4418355E-1,-7.7495396E-2,1.5212744E-1,-6.44468E-2,-8.0920085E-2,3.4377044E-1,4.634562E-2,-7.2201095E-3,7.2007194E-2,-6.942837E-2,3.2303786E-1,6.318539E-2,-1.5057662E-1,1.4171703E-3,3.570474E-1,1.00775085E-1],"split_indices":[4,1,4,3,4,2,0,4,3,1,4,0,3,1,4,1,1,2,4,4,4,2,4,1,1,1,4,4,1,1,2,4,1,1,1,2,2,1,2,4,4,2,4,0,0,0,2,2,4,1,0,0,0,0,4,1,2,2,2,2,4,3,4,0,0,0,0,0,0,0,0,0,0,0,0,0,0,0,0,0,0,0,0,0,0,0,0,0,0,0,0,0,0,0,0,0,0,0,0,0,0,0,0,0,0,0,0,0,0,0,0,0,0,0,0],"split_type":[0,0,0,0,0,0,0,0,0,0,0,0,0,0,0,0,0,0,0,0,0,0,0,0,0,0,0,0,0,0,0,0,0,0,0,0,0,0,0,0,0,0,0,0,0,0,0,0,0,0,0,0,0,0,0,0,0,0,0,0,0,0,0,0,0,0,0,0,0,0,0,0,0,0,0,0,0,0,0,0,0,0,0,0,0,0,0,0,0,0,0,0,0,0,0,0,0,0,0,0,0,0,0,0,0,0,0,0,0,0,0,0,0,0,0],"sum_hessian":[1.3918326E4,1.0712028E4,3.2062983E3,1.0626746E4,8.5281586E1,1.1867124E3,2.0195858E3,1.4239778E3,9.202769E3,3.939251E1,4.5889076E1,1.173352E3,1.33603945E1,1.7771919E3,2.4239397E2,1.3765546E3,4.7423203E1,6.6102515E3,2.5925168E3,2.8698914E1,1.0693596E1,6.224432E0,3.9664646E1,1.7111308E2,1.0022389E3,6.4188666E0,6.9415283E0,4.394523E2,1.3377396E3,1.0419501E2,1.3819896E2,1.353744E2,1.2411802E3,2.6416767E1,2.1006435E1,2.3030586E3,4.307193E3,2.5818704E3,1.0646665E1,7.698475E0,2.1000439E1,5.613771E0,5.079825E0,4.514057E0,1.7103748E0,2.6258612E0,3.7038784E1,9.2637535E1,7.8475555E1,5.583908E2,4.4384814E2,1.4518867E0,4.96698E0,1.7756581E0,5.16587E0,4.4827785E1,3.946245E2,1.7928736E1,1.3198109E3,9.5106674E1,9.088327E0,1.1961836E2,1.8580593E1,1.2452773E2,1.084667E1,4.175914E2,8.235888E2,2.217543E1,4.241337E0,3.4002016E0,1.7606236E1,2.020671E3,2.8238745E2,2.1036636E3,2.2035295E3,2.1563647E3,4.255056E2,7.828572E0,2.8180926E0,5.156461E0,2.5420141E0,1.1195059E1,9.80538E0,4.2430515E0,1.3707197E0,2.0880358E0,2.9917893E0,6.788353E0,3.0250431E1,1.0416312E0,9.15959E1,6.730092E1,1.1174635E1,2.2576765E2,3.326231E2,2.8328125E2,1.6056688E2,3.965694E0,1.200176E0,2.9371569E1,1.5456217E1,9.6084E0,3.850161E2,5.7932863E0,1.2135449E1,1.8480301E2,1.1350078E3,8.6481285E1,8.625391E0,7.7214556E0,1.3668718E0,1.831032E1,1.01308044E2,2.1729817E0,1.6407612E1],"tree_param":{"num_deleted":"0","num_feature":"5","num_nodes":"115","size_leaf_vector":"1"}},{"base_weights":[-9.241884E-4,-2.5886532E-2,1.5593005E-2,1.6038223E-1,-3.315375E-2,1.0205808E-2,1.1297157E-1,1.15216486E-1,6.402938E-1,-3.9235953E-2,2.1008287E-1,1.5506113E-1,6.886791E-3,1.3968565E-1,-2.826341E-1,1.879611E-1,-9.398447E-2,1.8293203E-1,1.111063E0,-1.1295302E-1,-2.1331524E-2,-2.2617447E-1,2.3233974E-1,2.7620208E-1,1.3335323E-1,1.52659835E-2,-4.196153E-2,5.898175E-2,2.8603816E-1,2.699042E-1,-1.1690623E0,1.05242744E-1,4.3201178E-1,-1.5776856E-1,3.4109482E-1,5.475352E-1,-3.1606826E-1,5.004046E-1,4.2488018E-1,-2.9883794E-2,-2.0584139E-1,8.480177E-2,-3.966605E-2,3.40627E-1,2.1176267E-1,-9.7584236E-1,1.5683566E-1,-2.870275E-3,6.776315E-2,-1.4249483E-1,7.981205E-3,4.482744E-1,1.3067242E-2,1.7620833E-1,7.0613456E-1,4.4687545E-1,-1.8287599E-1,-1.4364992E0,2.1824162E-1,6.762707E-2,-1.23708405E-1,5.842452E-3,2.4359934E-1,-1.1709879E-1,9.644422E-2,2.3117356E-1,-1.0274172E-1,2.7531493E-1,-1.0126767E-1,1.6007979E-3,-7.345779E-2,-1.2346051E-1,-2.4602927E-2,-7.54053E-2,3.275266E-2,-2.2243384E-2,-3.7464455E-3,8.686707E-2,-3.812289E-3,-3.5536364E-1,-8.2169324E-2,2.8190115E-2,1.21465065E-1,5.5127456E-3,-1.6093291E-2,3.5178564E-2,1.9844924E-3,4.8071966E-3,-7.1408026E-2,1.8990625E-1,-2.9533317E-3,2.0114814E-1,-1.4536554E-1,-5.0909817E-3,1.5353331E-1,1.0601177E-1,6.8920883E-3,2.6989692E-1,-6.006385E-2,2.5075987E-2,2.2099869E-1,-4.607649E-1,-1.4903717E-1],"categories":[],"categories_nodes":[],"categories_segments":[],"categories_sizes":[],"default_left":[0,0,0,1,0,0,0,0,0,0,0,0,0,0,0,0,0,0,0,0,0,0,0,0,0,0,0,0,0,0,0,0,0,0,0,0,0,0,0,0,0,0,0,0,0,0,0,0,0,0,0,0,0,0,0,0,0,0,0,0,0,0,0,0,0,0,0,0,0,0,0,0,0,0,0,0,0,0,0,0,0,0,0,0,0,0,0,0,0,0,0,0,0,0,0,0,0,0,0,0,0,0,0],"id":12,"left_children":[1,3,5,7,9,11,13,15,17,19,21,23,25,27,29,31,33,35,37,39,41,-1,43,-1,45,47,49,51,53,55,57,59,61,63,-1,65,-1,67,-1,69,71,73,75,-1,77,79,81,83,85,87,89,91,93,95,97,99,-1,101,-1,-1,-1,-1,-1,-1,-1,-1,-1,-1,-1,-1,-1,-1,-1,-1,-1,-1,-1,-1,-1,-1,-1,-1,-1,-1,-1,-1,-1,-1,-1,-1,-1,-1,-1,-1,-1,-1,-1,-1,-1,-1,-1,-1,-1],"loss_changes":[5.723543E0,7.487924E0,4.3813562E0,4.428997E0,7.880158E0,3.8053448E0,4.666648E0,2.9256525E0,3.5968685E0,6.8503184E0,2.9636126E0,2.823825E0,3.169068E0,4.8353024E0,1.4042456E1,2.8235164E0,4.102715E0,5.152445E0,8.7550545E-1,7.8209305E0,8.134572E0,0E0,2.134359E0,0E0,4.6740913E0,6.2919025E0,5.6932535E0,4.749635E0,6.600667E0,3.0860233E0,6.5984945E0,6.7778425E0,5.5731597E0,5.518218E0,0E0,1.9504619E0,0E0,1.8410747E0,0E0,4.064571E0,1.2159765E1,5.073244E0,3.3385358E0,0E0,2.2070556E0,2.2301674E-1,2.6260786E0,5.3002567E0,5.1350503E0,5.702661E0,8.455702E0,6.1370974E0,3.5890954E0,3.1649222E0,5.42037E0,1.5834744E0,0E0,1.6457558E-1,0E0,0E0,0E0,0E0,0E0,0E0,0E0,0E0,0E0,0E0,0E0,0E0,0E0,0E0,0E0,0E0,0E0,0E0,0E0,0E0,0E0,0E0,0E0,0E0,0E0,0E0,0E0,0E0,0E0,0E0,0E0,0E0,0E0,0E0,0E0,0E0,0E0,0E0,0E0,0E0,0E0,0E0,0E0,0E0,0E0],"parents":[2147483647,0,0,1,1,2,2,3,3,4,4,5,5,6,6,7,7,8,8,9,9,10,10,11,11,12,12,13,13,14,14,15,15,16,16,17,17,18,18,19,19,20,20,22,22,24,24,25,25,26,26,27,27,28,28,29,29,30,30,31,31,32,32,33,33,35,35,37,37,39,39,40,40,41,41,42,42,44,44,45,45,46,46,47,47,48,48,49,49,50,50,51,51,52,52,53,53,54,54,55,55,57,57],"right_children":[2,4,6,8,10,12,14,16,18,20,22,24,26,28,30,32,34,36,38,40,42,-1,44,-1,46,48,50,52,54,56,58,60,62,64,-1,66,-1,68,-1,70,72,74,76,-1,78,80,82,84,86,88,90,92,94,96,98,100,-1,102,-1,-1,-1,-1,-1,-1,-1,-1,-1,-1,-1,-1,-1,-1,-1,-1,-1,-1,-1,-1,-1,-1,-1,-1,-1,-1,-1,-1,-1,-1,-1,-1,-1,-1,-1,-1,-1,-1,-1,-1,-1,-1,-1,-1,-1],"split_conditions":[4E0,4.02E0,1.692E2,2E1,6.5E1,-5E1,2.521E1,1.439E2,3.62E0,7.71E1,6.6102743E-1,3E0,8.14E1,8.51E0,8.8022405E-1,1.032E2,4.964E2,1.629E2,8.970794E-1,9.0602183E-1,5.57E0,-2.2617447E-1,1.97E1,2.7620208E-1,3.4E0,3.52E1,6.05E0,1.783E2,9.314785E-1,3.771E2,3.877E2,8.49E1,3.54E0,9.068618E-1,3.4109482E-1,3.45E0,-3.1606826E-1,8.8816106E-1,4.2488018E-1,1.435E1,6.51E0,2E0,7.52E0,3.40627E-1,1.5E2,5.316162E-1,1.565E1,1.66E1,5.57E1,8.496269E-1,6.206936E-1,9.383606E-1,9.5581055E-1,2.275E2,1.481E1,2.206E2,-1.8287599E-1,1E2,2.1824162E-1,6.762707E-2,-1.23708405E-1,5.842452E-3,2.4359934E-1,-1.1709879E-1,9.644422E-2,2.3117356E-1,-1.0274172E-1,2.7531493E-1,-1.0126767E-1,1.6007979E-3,-7.345779E-2,-1.2346051E-1,-2.4602927E-2,-7.54053E-2,3.275266E-2,-2.2243384E-2,-3.7464455E-3,8.686707E-2,-3.812289E-3,-3.5536364E-1,-8.2169324E-2,2.8190115E-2,1.21465065E-1,5.5127456E-3,-1.6093291E-2,3.5178564E-2,1.9844924E-3,4.8071966E-3,-7.1408026E-2,1.8990625E-1,-2.9533317E-3,2.0114814E-1,-1.4536554E-1,-5.0909817E-3,1.5353331E-1,1.0601177E-1,6.8920883E-3,2.6989692E-1,-6.006385E-2,2.5075987E-2,2.2099869E-1,-4.607649E-1,-1.4903717E-1],"split_indices":[0,2,1,3,2,3,2,1,2,1,4,1,1,2,4,1,1,1,4,4,2,0,1,0,1,1,2,1,4,1,1,1,2,4,0,2,0,4,0,2,2,0,2,0,3,4,2,1,1,4,4,4,4,1,2,1,0,2,0,0,0,0,0,0,0,0,0,0,0,0,0,0,0,0,0,0,0,0,0,0,0,0,0,0,0,0,0,0,0,0,0,0,0,0,0,0,0,0,0,0,0,0,0],"split_type":[0,0,0,0,0,0,0,0,0,0,0,0,0,0,0,0,0,0,0,0,0,0,0,0,0,0,0,0,0,0,0,0,0,0,0,0,0,0,0,0,0,0,0,0,0,0,0,0,0,0,0,0,0,0,0,0,0,0,0,0,0,0,0,0,0,0,0,0,0,0,0,0,0,0,0,0,0,0,0,0,0,0,0,0,0,0,0,0,0,0,0,0,0,0,0,0,0,0,0,0,0,0,0],"sum_hessian":[1.3879743E4,5.526702E3,8.353041E3,2.0673491E2,5.3199673E3,7.916204E3,4.3683707E2,1.9008554E2,1.664937E1,5.1910034E3,1.2896385E2,1.762942E2,7.73991E3,4.0981067E2,2.7026392E1,1.41117E2,4.896853E1,9.14926E0,7.5001097E0,1.0133746E3,4.177629E3,2.1684794E0,1.2679537E2,3.7189567E0,1.7257526E2,6.6072275E3,1.1326827E3,2.6505377E2,1.4475691E2,1.7077173E1,9.94922E0,1.06463554E2,3.4653454E1,4.7385048E1,1.5834814E0,7.496085E0,1.6531746E0,3.3789716E0,4.121138E0,5.3566016E2,4.777144E2,6.148446E2,3.5627842E3,1.6177291E0,1.2517764E2,2.7369866E0,1.6983827E2,4.911419E3,1.6958083E3,3.7532037E2,7.5736237E2,2.7038742E1,2.3801503E2,1.1588059E2,2.8876322E1,1.4626018E1,2.4511561E0,8.932221E0,1.0169977E0,8.6860245E1,1.9603313E1,1.711911E1,1.7534342E1,3.2028446E1,1.5356602E1,6.10125E0,1.3948352E0,2.1921105E0,1.186861E0,4.6109363E2,7.456654E1,1.7864622E2,2.9906815E2,4.0937603E1,5.73907E2,1.5696979E3,1.9930862E3,9.274517E1,3.243247E1,1.5797684E0,1.1572182E0,1.3659628E2,3.324198E1,3.4629895E3,1.4484294E3,9.366686E2,7.5913983E2,1.4144649E2,2.3387389E2,2.004351E1,7.3731885E2,2.2063873E1,4.9748693E0,2.2540492E2,1.2610098E1,5.3138157E1,6.274243E1,2.380162E1,5.0747013E0,7.0616636E0,7.5643535E0,7.5041566E0,1.4280652E0],"tree_param":{"num_deleted":"0","num_feature":"5","num_nodes":"103","size_leaf_vector":"1"}},{"base_weights":[-7.259124E-4,-5.912489E-3,5.427039E-2,2.649467E-2,-1.4993843E-2,4.4923045E-2,2.4325038E-1,3.448139E-2,-2.0414561E-1,-1.3636279E-1,-9.765847E-3,4.8325013E-2,-6.547504E-1,5.870196E-1,9.00755E-2,2.519762E-2,2.8356835E-1,-2.94998E-1,1.471328E-1,-1.16060145E-1,-8.4454244E-1,-1.4889561E-2,1.4477181E-1,6.481269E-2,-4.7115754E-2,6.346949E-2,-3.2616347E-1,-3.66198E-1,7.6377827E-1,4.16995E-1,-1.1060099E-1,4.1961376E-2,-8.5315846E-2,-5.8497034E-2,7.017818E-1,-5.0679916E-1,-1.0930487E-1,-1.4766954E-1,4.672956E-1,-1.6617332E-1,1.05446965E-1,-2.9084504E-1,-2.6384035E-1,-1.7678075E-2,1.9415435E-1,9.629877E-2,5.3183043E-1,3.156668E-2,2.9073334E-1,3.581148E-2,-2.948531E-1,1.8760566E-2,-1.8277097E-1,1.2532042E-2,8.488411E-1,-1.7999163E-1,5.7475764E-1,-9.822787E-1,9.914395E-2,1.1341992E-2,1.3928725E-1,-6.793091E-2,4.696728E-2,1.2004701E-1,-1.540657E-1,2.3600991E-1,-1.2062079E-1,1.0275948E-1,-2.0532362E-1,2.4551123E-1,-7.700888E-2,9.6386954E-2,-1.1346662E-1,-1.9217558E-2,3.159157E-1,3.523703E-2,-6.8109795E-2,2.897253E-1,3.8697412E-3,-1.6283255E-2,-9.9793844E-2,-3.7900766E-3,-3.9756995E-2,4.3621514E-2,2.9147214E-1,5.0252713E-2,-7.088776E-2,2.5506088E-1,-2.0449811E-1,-8.67801E-3,2.4225837E-2,7.3878154E-2,3.2615766E-1,-1.8996464E-2,6.330763E-2,-5.08789E-1,-6.527005E-2,3.8135925E-1,1.4483291E-1,-8.839545E-2,2.1206221E-1,-3.837369E-2,-4.29144E-1,-5.738961E-4,3.014757E-1],"categories":[],"categories_nodes":[],"categories_segments":[],"categories_sizes":[],"default_left":[1,0,0,0,0,0,0,0,0,0,0,0,0,0,0,0,0,0,0,0,0,0,0,0,0,0,0,0,0,0,0,0,0,0,0,0,0,0,0,0,0,0,0,0,0,0,0,0,1,0,0,0,0,0,0,0,0,0,0,0,0,0,0,0,0,0,0,0,0,0,0,0,0,0,0,0,0,0,0,0,0,0,0,0,0,0,0,0,0,0,0,0,0,0,0,0,0,0,0,0,0,0,0,0,0],"id":13,"left_children":[1,3,5,7,9,11,13,15,17,19,21,23,25,27,29,31,33,35,37,39,41,43,45,47,49,-1,-1,51,53,55,57,59,61,63,65,67,69,71,73,75,77,-1,79,81,83,85,87,89,91,93,95,-1,-1,-1,97,-1,99,101,103,-1,-1,-1,-1,-1,-1,-1,-1,-1,-1,-1,-1,-1,-1,-1,-1,-1,-1,-1,-1,-1,-1,-1,-1,-1,-1,-1,-1,-1,-1,-1,-1,-1,-1,-1,-1,-1,-1,-1,-1,-1,-1,-1,-1,-1,-1],"loss_changes":[3.9476154E0,3.7223287E0,2.0959196E0,5.10692E0,6.267127E0,2.7396872E0,2.8951793E0,6.1827908E0,3.0052998E0,5.766657E0,7.502322E0,1.7861485E0,2.3182092E0,3.1567478E0,2.6644597E0,4.7864594E0,1.3786484E1,2.85775E0,1.931967E0,4.4320064E0,5.5743504E-1,5.348331E0,5.653672E0,7.251199E0,3.4516232E0,0E0,0E0,3.8685197E-1,8.6910725E-1,2.814009E0,4.7633166E0,3.9169705E0,1.1653221E1,1.1429422E1,4.3757763E0,5.41276E0,5.780802E0,1.3147111E0,3.0871866E0,5.631524E0,5.878072E0,0E0,3.0371353E-2,5.240943E0,4.436283E0,6.4685073E0,1.3568551E1,2.5128841E0,4.1201544E0,2.2085414E0,4.1914525E0,0E0,0E0,0E0,1.4154654E0,0E0,1.7972932E0,1.7475433E0,1.9680103E0,0E0,0E0,0E0,0E0,0E0,0E0,0E0,0E0,0E0,0E0,0E0,0E0,0E0,0E0,0E0,0E0,0E0,0E0,0E0,0E0,0E0,0E0,0E0,0E0,0E0,0E0,0E0,0E0,0E0,0E0,0E0,0E0,0E0,0E0,0E0,0E0,0E0,0E0,0E0,0E0,0E0,0E0,0E0,0E0,0E0,0E0],"parents":[2147483647,0,0,1,1,2,2,3,3,4,4,5,5,6,6,7,7,8,8,9,9,10,10,11,11,12,12,13,13,14,14,15,15,16,16,17,17,18,18,19,19,20,20,21,21,22,22,23,23,24,24,27,27,28,28,29,29,30,30,31,31,32,32,33,33,34,34,35,35,36,36,37,37,38,38,39,39,40,40,42,42,43,43,44,44,45,45,46,46,47,47,48,48,49,49,50,50,54,54,56,56,57,57,58,58],"right_children":[2,4,6,8,10,12,14,16,18,20,22,24,26,28,30,32,34,36,38,40,42,44,46,48,50,-1,-1,52,54,56,58,60,62,64,66,68,70,72,74,76,78,-1,80,82,84,86,88,90,92,94,96,-1,-1,-1,98,-1,100,102,104,-1,-1,-1,-1,-1,-1,-1,-1,-1,-1,-1,-1,-1,-1,-1,-1,-1,-1,-1,-1,-1,-1,-1,-1,-1,-1,-1,-1,-1,-1,-1,-1,-1,-1,-1,-1,-1,-1,-1,-1,-1,-1,-1,-1,-1,-1],"split_conditions":[5E1,7.5703996E-1,3.031E2,3.67E2,2E0,2.903E2,6.73E0,7.518822E-1,6.293E2,9.8733974E-1,4.268E2,3E2,6.95E0,4.92E0,8.640117E-1,5.476E1,6.37E1,7.64E0,7.170269E-1,1.711E1,3.3333332E1,1E2,9.580702E-1,1.5E2,2.63E0,6.346949E-2,-3.2616347E-1,4.42E0,8.364459E-1,7.18E0,8.891025E-1,5E1,2E1,7.544337E-1,3.031E2,4.64E0,8.05E0,8.033E2,8.033E2,6.07E0,1.855E1,-2.9084504E-1,8.95E0,2.521E1,2.206E2,9.4323E-1,9.823232E-1,5.93E0,1.786E1,5.561485E-1,4.02E0,1.8760566E-2,-1.8277097E-1,1.2532042E-2,9.150051E-1,-1.7999163E-1,6.995564E-1,6.6666664E1,1.481E1,1.1341992E-2,1.3928725E-1,-6.793091E-2,4.696728E-2,1.2004701E-1,-1.540657E-1,2.3600991E-1,-1.2062079E-1,1.0275948E-1,-2.0532362E-1,2.4551123E-1,-7.700888E-2,9.6386954E-2,-1.1346662E-1,-1.9217558E-2,3.159157E-1,3.523703E-2,-6.8109795E-2,2.897253E-1,3.8697412E-3,-1.6283255E-2,-9.9793844E-2,-3.7900766E-3,-3.9756995E-2,4.3621514E-2,2.9147214E-1,5.0252713E-2,-7.088776E-2,2.5506088E-1,-2.0449811E-1,-8.67801E-3,2.4225837E-2,7.3878154E-2,3.2615766E-1,-1.8996464E-2,6.330763E-2,-5.08789E-1,-6.527005E-2,3.8135925E-1,1.4483291E-1,-8.839545E-2,2.1206221E-1,-3.837369E-2,-4.29144E-1,-5.738961E-4,3.014757E-1],"split_indices":[3,4,1,1,0,1,2,4,1,4,1,3,2,2,4,2,1,2,4,2,3,2,4,3,2,0,0,2,4,2,4,2,3,4,1,2,2,1,1,2,2,0,2,2,1,4,4,2,2,4,2,0,0,0,4,0,4,3,2,0,0,0,0,0,0,0,0,0,0,0,0,0,0,0,0,0,0,0,0,0,0,0,0,0,0,0,0,0,0,0,0,0,0,0,0,0,0,0,0,0,0,0,0,0,0],"split_type":[0,0,0,0,0,0,0,0,0,0,0,0,0,0,0,0,0,0,0,0,0,0,0,0,0,0,0,0,0,0,0,0,0,0,0,0,0,0,0,0,0,0,0,0,0,0,0,0,0,0,0,0,0,0,0,0,0,0,0,0,0,0,0,0,0,0,0,0,0,0,0,0,0,0,0,0,0,0,0,0,0,0,0,0,0,0,0,0,0,0,0,0,0,0,0,0,0,0,0,0,0,0,0,0,0],"sum_hessian":[1.3837381E4,1.26456875E4,1.1916935E3,2.7675747E3,9.878113E3,1.1367073E3,5.498621E1,2.6757673E3,9.180727E1,4.068945E2,9.471219E3,1.1321335E3,4.5737524E0,